%YAML:1.0
---
opencv_ml_svm:
   format: 3
   svmType: C_SVC
   kernel:
      type: RBF
      gamma: 3.3750000000000002e-02
   C: 1.2500000000000000e+01
   term_criteria: { epsilon:1.1920928955078125e-07, iterations:1000 }
   var_count: 144
   class_count: 20
   class_labels: !!opencv-matrix
      rows: 20
      cols: 1
      dt: i
      data: [ 40, 41, 42, 43, 45, 47, 48, 49, 50, 51, 52, 53, 54, 55, 56,
          57, 61, 102, 120, 121 ]
   sv_total: 629
   support_vectors:
      - [ 4.63002294e-01, 4.63002294e-01, 3.62807631e-01, 2.19052628e-01,
          2.34979093e-01, 4.63002294e-01, 1.37323424e-01, 1.11578077e-01,
          2.93472409e-01, 4.43258256e-01, 4.43258256e-01, 3.22105065e-02,
          9.66090262e-02, 4.43258256e-01, 4.43258256e-01, 9.70502943e-02,
          1.91142913e-02, 4.35322821e-01, 3.85369986e-01, 2.79774249e-01,
          2.03356937e-01, 3.85369986e-01, 3.85369986e-01, 3.85369986e-01,
          1.48571461e-01, 3.34512442e-01, 3.85369986e-01, 3.87526363e-01,
          1.08594701e-01, 2.84000307e-01, 3.56409699e-01, 3.87526363e-01,
          1.60524920e-01, 3.87526363e-01, 3.87526363e-01, 3.87526363e-01,
          3.68471712e-01, 3.68471712e-01, 3.68471712e-01, 2.91576296e-01,
          3.22694808e-01, 3.68471712e-01, 3.68471712e-01, 2.33332887e-01,
          2.71788001e-01, 3.98721188e-01, 3.98721188e-01, 3.98721188e-01,
          1.98429763e-01, 3.98721188e-01, 3.98721188e-01, 3.38538557e-01,
          1.17157638e-01, 1.82798162e-01, 3.59164149e-01, 3.59164149e-01,
          3.59164149e-01, 2.95890063e-01, 3.59164149e-01, 3.59164149e-01,
          3.59164149e-01, 3.07164371e-01, 2.01289326e-01, 2.32705519e-01,
          3.58649492e-01, 3.58649492e-01, 2.69283205e-01, 3.58649492e-01,
          3.13009143e-01, 3.58649492e-01, 3.58649492e-01, 3.58649492e-01,
          3.73676926e-01, 3.13079745e-01, 3.73676926e-01, 2.64611214e-01,
          3.24211925e-01, 3.73676926e-01, 3.73676926e-01, 3.37234676e-01,
          2.25499898e-01, 2.21336037e-01, 4.04340655e-01, 4.04340655e-01,
          4.04340655e-01, 2.62367427e-01, 3.68118763e-01, 4.04340655e-01,
          2.53446907e-01, 1.56276032e-01, 3.32778692e-01, 3.32778692e-01,
          3.32778692e-01, 3.32778692e-01, 3.32778692e-01, 3.32778692e-01,
          3.32778692e-01, 3.32778692e-01, 3.32778692e-01, 3.70143831e-01,
          3.70143831e-01, 3.70143831e-01, 1.05881646e-01, 3.63541394e-01,
          3.70143831e-01, 3.70143831e-01, 1.75756022e-01, 3.70143831e-01,
          3.95882487e-01, 1.81320518e-01, 4.03315395e-01, 3.46672833e-01,
          4.03315395e-01, 4.03315395e-01, 4.03315395e-01, 1.56905055e-01,
          1.04481727e-01, 1.75402388e-01, 1.69283345e-01, 4.53634501e-01,
          4.53634501e-01, 1.41944706e-01, 4.53634501e-01, 4.53634501e-01,
          2.91937292e-01, 8.67942795e-02, 3.81473035e-01, 3.15822691e-01,
          4.00991350e-01, 4.25557524e-01, 4.25557524e-01, 4.25557524e-01,
          7.75883272e-02, 6.79602623e-02, 1.89084977e-01, 4.32161927e-01,
          2.01082796e-01, 9.95245874e-02, 1.78338736e-01, 5.01553714e-01,
          5.01553714e-01, 4.60300833e-01, 6.47268072e-02, 8.30912739e-02 ]
      - [ 3.58123153e-01, 3.58123153e-01, 3.58123153e-01, 3.06340009e-01,
          3.52709204e-01, 3.47497314e-01, 3.13342184e-01, 2.15005949e-01,
          3.58123153e-01, 3.86366367e-01, 3.74381721e-01, 1.30934238e-01,
          3.86366367e-01, 3.28440726e-01, 2.26824790e-01, 2.87046731e-01,
          3.86366367e-01, 3.86366367e-01, 3.48519944e-02, 4.10238020e-02,
          6.70909125e-04, 1.01269022e-01, 1.56855419e-01, 2.13934556e-01,
          5.51051080e-01, 5.51051080e-01, 5.51051080e-01, 0., 0., 0., 0.,
          0., 0., 0., 0., 0., 3.58441263e-01, 3.58441263e-01,
          3.58441263e-01, 2.26009846e-01, 3.58441263e-01, 3.58441263e-01,
          3.58441263e-01, 2.98763454e-01, 2.91886836e-01, 3.27300280e-01,
          3.34471017e-01, 3.34471017e-01, 3.34471017e-01, 3.26246560e-01,
          3.34471017e-01, 3.34471017e-01, 3.34471017e-01, 3.34471017e-01,
          4.19698924e-01, 4.19698924e-01, 2.77869761e-01, 4.74172719e-02,
          6.98900670e-02, 1.75290689e-01, 4.19698924e-01, 4.19698924e-01,
          4.19698924e-01, 3.72713804e-01, 3.72713804e-01, 2.72125781e-01,
          1.40499333e-02, 3.72713804e-01, 2.97544807e-01, 3.72713804e-01,
          3.72713804e-01, 3.72713804e-01, 3.42599481e-01, 3.42599481e-01,
          3.42599481e-01, 2.39961982e-01, 3.42599481e-01, 3.42599481e-01,
          3.42599481e-01, 3.42599481e-01, 3.42599481e-01, 3.68992954e-01,
          3.68992954e-01, 3.68992954e-01, 1.43394142e-01, 3.68992954e-01,
          3.68992954e-01, 3.68992954e-01, 1.50535986e-01, 3.68992954e-01,
          3.90360415e-01, 3.90360415e-01, 3.90360415e-01, 6.69360980e-02,
          3.90360415e-01, 3.90360415e-01, 3.90360415e-01, 1.88886613e-01,
          2.04093635e-01, 3.63350272e-01, 3.86373013e-01, 3.14797997e-01,
          4.66262363e-02, 3.86373013e-01, 3.86373013e-01, 3.86373013e-01,
          3.02861601e-01, 2.71998405e-01, 3.63037318e-01, 3.63037318e-01,
          3.63037318e-01, 3.63037318e-01, 3.63037318e-01, 3.63037318e-01,
          1.91336676e-01, 2.60255426e-01, 3.18203986e-01, 2.93837994e-01,
          4.35822785e-01, 3.02421421e-01, 5.87122291e-02, 4.35822785e-01,
          4.35822785e-01, 4.35822785e-01, 9.06076208e-02, 2.15462759e-01,
          5.20810625e-03, 1.22541264e-01, 3.18744630e-01, 1.57572523e-01,
          5.90473831e-01, 5.90473831e-01, 3.93219769e-01, 1.98656470e-02,
          1.72666162e-02, 0., 0., 0., 0., 7.01270282e-01, 7.01270282e-01,
          9.71578285e-02, 0., 0. ]
      - [ 4.11967427e-01, 4.11967427e-01, 3.75625104e-01, 4.26976867e-02,
          4.09299225e-01, 3.83296162e-01, 1.26306921e-01, 1.15847543e-01,
          4.11967427e-01, 4.10271257e-01, 4.10271257e-01, 1.93304241e-01,
          2.57718444e-01, 2.99206525e-01, 2.24827945e-01, 2.80631602e-01,
          4.10271257e-01, 4.10271257e-01, 4.01197582e-01, 4.01197582e-01,
          1.58428460e-01, 1.68683946e-01, 4.01197582e-01, 4.01197582e-01,
          1.75003573e-01, 3.27130556e-01, 4.01197582e-01, 3.74892563e-01,
          2.42413357e-01, 2.36990094e-01, 3.21214765e-01, 3.74892563e-01,
          2.74636149e-01, 3.74892563e-01, 3.74892563e-01, 3.74892563e-01,
          3.40765893e-01, 3.40765893e-01, 3.40765893e-01, 3.40765893e-01,
          3.40765893e-01, 3.40765893e-01, 3.40765893e-01, 2.60046542e-01,
          3.40765893e-01, 3.32778692e-01, 3.32778692e-01, 3.32778692e-01,
          3.32778692e-01, 3.32778692e-01, 3.32778692e-01, 3.32778692e-01,
          3.32778692e-01, 3.32778692e-01, 3.40519279e-01, 3.40519279e-01,
          3.40519279e-01, 2.62622833e-01, 3.40519279e-01, 3.40519279e-01,
          3.40519279e-01, 3.40519279e-01, 3.40519279e-01, 2.70779580e-01,
          3.62319529e-01, 3.62319529e-01, 2.74982929e-01, 3.62319529e-01,
          2.44520470e-01, 3.62319529e-01, 3.62319529e-01, 3.62319529e-01,
          3.39353472e-01, 1.89939588e-01, 3.98207754e-01, 3.98207754e-01,
          3.98207754e-01, 2.67968744e-01, 2.09087238e-01, 3.08191121e-01,
          3.98207754e-01, 3.61267507e-01, 2.21699163e-01, 3.61267507e-01,
          3.61267507e-01, 3.61267507e-01, 3.61267507e-01, 3.24041009e-01,
          2.43212134e-01, 3.61267507e-01, 3.43205005e-01, 3.43205005e-01,
          3.43205005e-01, 3.43205005e-01, 3.25765908e-01, 3.43205005e-01,
          2.56748617e-01, 3.43205005e-01, 3.43205005e-01, 3.69419783e-01,
          3.69419783e-01, 2.48147100e-01, 2.06225097e-01, 3.69419783e-01,
          3.69419783e-01, 3.69419783e-01, 3.04796308e-01, 3.41976374e-01,
          0., 0., 0., 6.39478862e-01, 6.76394165e-01, 3.56097400e-01, 0.,
          0., 0., 1.86265483e-02, 1.02238111e-01, 5.47663748e-01,
          5.47663748e-01, 5.47663748e-01, 2.57391423e-01, 4.61869314e-02,
          4.24690470e-02, 1.17206261e-01, 2.36668766e-01, 1.49322882e-01,
          2.88728595e-01, 4.95802134e-01, 4.95802134e-01, 4.95802134e-01,
          1.69057295e-01, 1.18858121e-01, 2.30667949e-01, 3.18840891e-01,
          1.86357543e-01, 4.67920378e-02, 2.30824605e-01, 5.11232853e-01,
          5.11232853e-01, 5.11232853e-01, 1.18267477e-01, 7.05105737e-02 ]
      - [ 3.91765922e-01, 3.91765922e-01, 3.91765922e-01, 7.28330612e-02,
          3.91765922e-01, 2.92008817e-01, 1.07066594e-01, 3.55874240e-01,
          3.91765922e-01, 3.96507740e-01, 2.72916704e-01, 4.11824957e-02,
          3.16712223e-02, 3.96507740e-01, 3.64368409e-01, 3.96507740e-01,
          3.96507740e-01, 3.96507740e-01, 4.29131031e-01, 4.29131031e-01,
          4.29131031e-01, 7.77036995e-02, 2.87043303e-01, 4.29131031e-01,
          8.16388205e-02, 1.15101278e-01, 3.88271123e-01, 3.52567911e-01,
          3.52567911e-01, 3.52567911e-01, 1.77254841e-01, 3.08106005e-01,
          3.52567911e-01, 3.52567911e-01, 3.52567911e-01, 3.52567911e-01,
          3.00056309e-01, 3.42321336e-01, 3.42321336e-01, 2.93698490e-01,
          3.42321336e-01, 3.42321336e-01, 3.42321336e-01, 3.42321336e-01,
          3.42321336e-01, 3.67598861e-01, 3.67598861e-01, 1.51841700e-01,
          1.65435910e-01, 3.67598861e-01, 3.67598861e-01, 3.67598861e-01,
          3.67598861e-01, 3.67598861e-01, 4.21275467e-01, 4.21275467e-01,
          4.21275467e-01, 4.27045375e-02, 3.65873337e-01, 4.21275467e-01,
          3.06855559e-01, 3.46321203e-02, 2.34206587e-01, 2.59816825e-01,
          3.64744157e-01, 3.64744157e-01, 7.80824423e-02, 3.55436862e-01,
          3.62253129e-01, 3.64744157e-01, 3.64744157e-01, 3.64744157e-01,
          9.58229750e-02, 8.74142572e-02, 4.38892692e-01, 4.38892692e-01,
          4.38892692e-01, 8.57719332e-02, 9.11142975e-02, 4.38892692e-01,
          4.38892692e-01, 3.47216338e-01, 2.97252685e-01, 3.47216338e-01,
          3.47216338e-01, 3.47216338e-01, 3.47216338e-01, 2.53490597e-01,
          3.47216338e-01, 3.47216338e-01, 4.15626585e-01, 4.15626585e-01,
          4.15626585e-01, 7.38838390e-02, 3.23731363e-01, 4.15626585e-01,
          4.15626585e-01, 5.30972220e-02, 1.37987867e-01, 4.10433039e-02,
          4.02916402e-01, 4.40241963e-01, 2.03888565e-01, 2.57377595e-01,
          3.19115579e-01, 4.40241963e-01, 4.40241963e-01, 2.01218158e-01,
          3.15981135e-02, 1.32932235e-02, 5.38879454e-01, 5.38879454e-01,
          5.38879454e-01, 1.30209655e-01, 2.46355496e-02, 2.42104039e-01,
          2.14695618e-01, 1.35559171e-01, 3.38290893e-02, 3.17291319e-01,
          4.96522814e-01, 4.96522814e-01, 4.96522814e-01, 2.01296806e-01,
          1.03399545e-01, 2.89879233e-01, 8.20669010e-02, 3.51416498e-01,
          4.35219437e-01, 4.35219437e-01, 4.35219437e-01, 4.35219437e-01,
          2.67191231e-01, 6.09860606e-02, 1.80692270e-01, 0.,
          1.97149873e-01, 4.02310848e-01, 4.02310848e-01, 4.02310848e-01,
          4.02310848e-01, 4.02310848e-01, 2.82322139e-01, 2.61030495e-01 ]
      - [ 4.99354422e-01, 4.99354422e-01, 2.62913853e-01, 6.04087003e-02,
          2.84879833e-01, 2.66431779e-01, 1.33603320e-01, 6.46761209e-02,
          4.99354422e-01, 3.78730893e-01, 3.78730893e-01, 1.88809291e-01,
          2.73805857e-01, 3.39989126e-01, 3.02855164e-01, 3.23319614e-01,
          3.78730893e-01, 3.78730893e-01, 3.87827843e-01, 3.87827843e-01,
          3.87827843e-01, 2.04216942e-01, 2.20554039e-01, 5.75688966e-02,
          3.87827843e-01, 3.87827843e-01, 3.87827843e-01, 2.53439009e-01,
          4.25455332e-01, 4.25455332e-01, 8.22076648e-02, 1.39957532e-01,
          1.05421785e-02, 4.25455332e-01, 4.25455332e-01, 4.25455332e-01,
          3.70167971e-01, 3.70167971e-01, 3.70167971e-01, 2.52771586e-01,
          3.70167971e-01, 3.70167971e-01, 2.98045754e-01, 1.46393463e-01,
          3.70167971e-01, 3.43321145e-01, 3.43321145e-01, 3.43321145e-01,
          3.43321145e-01, 3.43321145e-01, 3.43321145e-01, 3.43321145e-01,
          3.43321145e-01, 2.31548369e-01, 3.99694979e-01, 2.66277850e-01,
          3.99694979e-01, 3.99694979e-01, 6.93741068e-02, 6.41633421e-02,
          3.99694979e-01, 3.99694979e-01, 3.42626631e-01, 3.74526292e-01,
          3.74526292e-01, 3.74526292e-01, 1.77631423e-01, 3.74526292e-01,
          1.25150964e-01, 3.74526292e-01, 3.74526292e-01, 3.27754438e-01,
          3.51826310e-01, 3.51826310e-01, 3.51826310e-01, 3.51826310e-01,
          3.51826310e-01, 3.51826310e-01, 2.78271109e-01, 2.29298443e-01,
          3.51826310e-01, 3.45879346e-01, 2.97454536e-01, 3.45879346e-01,
          3.45879346e-01, 3.45879346e-01, 3.45879346e-01, 2.65776902e-01,
          3.45879346e-01, 3.45879346e-01, 3.72152030e-01, 1.78900644e-01,
          2.56363243e-01, 3.72152030e-01, 3.72152030e-01, 3.72152030e-01,
          2.59945720e-01, 3.72152030e-01, 3.72152030e-01, 3.46240729e-01,
          3.46240729e-01, 1.93596005e-01, 3.46240729e-01, 3.46240729e-01,
          3.46240729e-01, 3.46240729e-01, 3.46240729e-01, 3.46240729e-01,
          2.43157834e-01, 2.72842407e-01, 4.45621252e-01, 4.45621252e-01,
          4.45621252e-01, 4.45621252e-01, 1.74635574e-01, 1.79754093e-01,
          6.96982518e-02, 2.29695290e-01, 1.19349144e-01, 1.24246739e-01,
          3.22618008e-01, 6.03661954e-01, 6.03661954e-01, 1.32872462e-01,
          1.61666408e-01, 1.86660886e-01, 6.90861344e-02, 5.27640507e-02,
          9.61573571e-02, 4.40998465e-01, 6.16462409e-01, 6.16462409e-01,
          5.58669716e-02, 9.65563953e-02, 1.00329526e-01, 0.,
          1.12905376e-01, 4.47570384e-02, 4.68706667e-01, 4.68706667e-01,
          4.68706667e-01, 4.68706667e-01, 1.95452482e-01, 2.52234608e-01 ]
      - [ 3.64109516e-01, 3.64109516e-01, 3.64109516e-01, 1.09097585e-01,
          2.94296026e-01, 3.19992900e-01, 3.64109516e-01, 3.64109516e-01,
          3.64109516e-01, 2.41931096e-01, 0., 0., 0., 8.64073709e-02,
          2.34996438e-01, 5.39565146e-01, 5.39565146e-01, 5.39565146e-01,
          6.89788938e-01, 0., 0., 0., 0., 0., 0., 0., 6.89788938e-01,
          7.04615593e-01, 0., 0., 0., 0., 0., 0., 0., 7.04615593e-01,
          3.40575188e-01, 3.58969957e-01, 3.58969957e-01, 2.39232674e-01,
          3.58969957e-01, 3.58969957e-01, 3.58969957e-01, 3.58969957e-01,
          2.23681435e-01, 4.11997318e-01, 4.11997318e-01, 1.30016536e-01,
          3.20003228e-03, 1.09513886e-01, 3.58744979e-01, 4.11997318e-01,
          4.11997318e-01, 3.99138302e-01, 4.46652740e-01, 4.46652740e-01,
          1.73718691e-01, 1.18337959e-01, 2.77423561e-01, 4.46652740e-01,
          1.42157748e-01, 2.37042099e-01, 4.46652740e-01, 3.62075537e-01,
          3.62075537e-01, 7.29960501e-02, 2.90605873e-01, 3.62075537e-01,
          3.46424997e-01, 3.62075537e-01, 3.62075537e-01, 3.62075537e-01,
          3.86612743e-01, 3.86612743e-01, 3.86612743e-01, 3.22944283e-01,
          2.01170653e-01, 2.35021889e-01, 3.86612743e-01, 3.86612743e-01,
          2.20890284e-01, 4.27014440e-01, 4.27014440e-01, 1.70593485e-01,
          8.61427635e-02, 3.30959171e-01, 4.27014440e-01, 4.27014440e-01,
          2.80891210e-01, 2.03500837e-01, 4.45023745e-01, 4.45023745e-01,
          1.68490112e-01, 1.82993680e-01, 4.45023745e-01, 4.45023745e-01,
          2.63302475e-01, 1.65511131e-01, 2.11594760e-01, 3.62027913e-01,
          2.90914476e-01, 9.19414908e-02, 3.84786040e-01, 3.84786040e-01,
          3.84786040e-01, 3.84786040e-01, 3.76302272e-01, 1.95352301e-01,
          2.15583175e-01, 3.74171495e-01, 3.74171495e-01, 3.74171495e-01,
          3.74171495e-01, 3.74171495e-01, 2.87732303e-01, 3.74171495e-01,
          1.64224714e-01, 2.43252903e-01, 3.54688495e-01, 2.34048828e-01,
          2.28890106e-01, 4.91044492e-01, 4.91044492e-01, 2.69714713e-01,
          3.57838869e-01, 1.41088769e-01, 4.62709703e-02, 2.46766597e-01,
          1.10173775e-02, 2.58885557e-03, 6.63925052e-01, 6.63925052e-01,
          2.19834983e-01, 1.69919115e-02, 0., 0., 0., 0., 0.,
          9.95024860e-01, 0., 0., 0., 0. ]
      - [ 4.07459795e-01, 4.07459795e-01, 4.07459795e-01, 2.84264926e-02,
          8.92155319e-02, 0., 4.07459795e-01, 4.07459795e-01,
          3.96288782e-01, 3.79784316e-01, 3.79784316e-01, 3.79784316e-01,
          1.00284532e-01, 2.87542850e-01, 1.95066571e-01, 3.79784316e-01,
          3.79784316e-01, 3.79784316e-01, 4.57527399e-01, 1.60190880e-01,
          1.05967499e-01, 8.64216834e-02, 2.54196852e-01, 2.21652240e-01,
          4.57527399e-01, 4.57527399e-01, 4.57527399e-01, 3.92471522e-01,
          3.92471522e-01, 3.92471522e-01, 0., 3.92471522e-01, 0.,
          3.92471522e-01, 2.68096477e-01, 3.92471522e-01, 3.84813875e-01,
          3.84813875e-01, 3.49051952e-01, 1.98180780e-01, 3.84813875e-01,
          3.53948653e-01, 3.29805225e-01, 9.30852816e-02, 3.84813875e-01,
          3.55730027e-01, 3.55730027e-01, 3.55730027e-01, 2.08115608e-01,
          3.55730027e-01, 3.55730027e-01, 3.55730027e-01, 2.59473950e-01,
          3.55730027e-01, 4.40118313e-01, 1.82689622e-01, 1.00482099e-01,
          4.76329662e-02, 2.12384880e-01, 4.40118313e-01, 4.40118313e-01,
          3.60470057e-01, 4.40118313e-01, 3.72854173e-01, 3.34081680e-01,
          3.72854173e-01, 1.62266374e-01, 3.72854173e-01, 1.55603841e-01,
          3.72854173e-01, 3.72854173e-01, 3.72854173e-01, 3.63419890e-01,
          3.63419890e-01, 3.52383047e-01, 3.63419890e-01, 3.63419890e-01,
          3.63419890e-01, 2.56349713e-01, 1.18473060e-01, 3.63419890e-01,
          3.96571428e-01, 1.37832254e-01, 2.82612145e-01, 3.96571428e-01,
          3.96571428e-01, 3.96571428e-01, 1.69475943e-01, 2.86538333e-01,
          3.96571428e-01, 4.98510748e-01, 9.43916067e-02, 1.63882047e-01,
          1.63930491e-01, 4.98510748e-01, 3.91608149e-01, 4.68944497e-02,
          1.76877871e-01, 4.98510748e-01, 3.34205210e-01, 3.34205210e-01,
          3.34205210e-01, 3.21116418e-01, 3.34205210e-01, 3.34205210e-01,
          3.34205210e-01, 3.34205210e-01, 3.34205210e-01, 2.18642116e-01,
          2.64072239e-01, 3.09791088e-01, 4.00860757e-01, 4.00860757e-01,
          4.00860757e-01, 4.00860757e-01, 2.69965589e-01, 2.58549005e-01,
          2.86164582e-01, 6.61125183e-02, 6.27900362e-02, 6.24146640e-01,
          6.27414048e-01, 2.31509626e-01, 6.02462254e-02, 1.31858066e-01,
          2.13803440e-01, 1.40454128e-01, 1.70180015e-02, 6.59551695e-02,
          2.19319507e-01, 8.97046268e-01, 3.18156183e-01, 8.31810944e-03,
          3.45569849e-02, 1.06784180e-01, 1.23309076e-01, 1.95287123e-01,
          2.53218114e-01, 4.36086446e-01, 4.45688725e-01, 4.45688725e-01,
          4.39176589e-01, 2.11921364e-01, 2.29894340e-01 ]
      - [ 4.25625235e-01, 4.25625235e-01, 3.67117077e-01, 1.41534269e-01,
          3.01310509e-01, 4.25625235e-01, 1.16458215e-01, 1.09377630e-01,
          4.25625235e-01, 4.16945785e-01, 2.36085385e-01, 1.95088699e-01,
          3.35539550e-01, 3.51135701e-01, 1.80538312e-01, 3.34709585e-01,
          4.16945785e-01, 4.16945785e-01, 4.18854564e-01, 4.18854564e-01,
          3.18082839e-01, 1.76575884e-01, 3.92496645e-01, 3.61271948e-01,
          9.90112945e-02, 2.06805035e-01, 4.18854564e-01, 4.31953043e-01,
          1.84646055e-01, 1.93647712e-01, 2.79725552e-01, 3.67592037e-01,
          2.76381314e-01, 2.73101002e-01, 4.31953043e-01, 4.31953043e-01,
          3.72665614e-01, 3.72665614e-01, 3.72665614e-01, 2.39131346e-01,
          3.72665614e-01, 3.72665614e-01, 3.72665614e-01, 2.17290163e-01,
          2.42074162e-01, 3.32778692e-01, 3.32778692e-01, 3.32778692e-01,
          3.32778692e-01, 3.32778692e-01, 3.32778692e-01, 3.32778692e-01,
          3.32778692e-01, 3.32778692e-01, 3.36686015e-01, 3.36686015e-01,
          3.17911565e-01, 3.25388342e-01, 3.36686015e-01, 3.36686015e-01,
          3.36686015e-01, 3.30977142e-01, 3.36686015e-01, 3.09916586e-01,
          3.74267310e-01, 3.74267310e-01, 3.74267310e-01, 2.86093175e-01,
          2.31040686e-01, 3.74267310e-01, 3.74267310e-01, 2.54171431e-01,
          3.64440680e-01, 2.59175628e-01, 3.64440680e-01, 3.64440680e-01,
          3.64440680e-01, 1.87479332e-01, 3.11667234e-01, 3.64440680e-01,
          3.64440680e-01, 3.40012372e-01, 3.40012372e-01, 3.40012372e-01,
          3.40012372e-01, 3.40012372e-01, 3.40012372e-01, 3.40012372e-01,
          2.67834842e-01, 3.40012372e-01, 3.33335787e-01, 3.28279763e-01,
          3.33335787e-01, 3.33335787e-01, 3.33335787e-01, 3.33335787e-01,
          3.33335787e-01, 3.33335787e-01, 3.33335787e-01, 3.55507523e-01,
          3.55507523e-01, 2.76060164e-01, 3.23561043e-01, 3.55507523e-01,
          3.55507523e-01, 3.55507523e-01, 3.04954648e-01, 3.01034421e-01,
          1.58063307e-01, 8.61865580e-02, 5.12019038e-01, 5.12019038e-01,
          5.12019038e-01, 3.48781258e-01, 1.28046289e-01, 4.07882370e-02,
          1.90462396e-01, 1.55870110e-01, 4.22704443e-02, 3.68484259e-01,
          4.53756958e-01, 4.53756958e-01, 4.53756958e-01, 4.32699502e-01,
          5.16949333e-02, 1.61298499e-01, 2.65910625e-01, 7.97743946e-02,
          3.79632711e-01, 4.98105019e-01, 4.98105019e-01, 3.18700969e-01,
          1.68418124e-01, 2.05457404e-01, 3.24756622e-01, 2.72770584e-01,
          8.07473734e-02, 2.82203779e-02, 1.11825094e-01, 5.12297988e-01,
          5.12297988e-01, 5.12297988e-01, 2.91608751e-01, 1.68152422e-01 ]
      - [ 5.86816430e-01, 5.86816430e-01, 2.57292211e-01, 1.61275163e-01,
          2.67452717e-01, 3.00253540e-01, 1.06453292e-01, 1.04525991e-01,
          1.71123803e-01, 4.44042653e-01, 4.44042653e-01, 1.58805564e-01,
          1.10156447e-01, 4.44042653e-01, 4.44042653e-01, 1.70232922e-01,
          1.08750068e-01, 3.58760953e-01, 3.89856547e-01, 3.06993246e-01,
          2.13455617e-01, 3.11160922e-01, 3.89856547e-01, 3.89856547e-01,
          3.53529245e-01, 1.62912548e-01, 3.89856547e-01, 3.73508841e-01,
          1.59058064e-01, 2.12540567e-01, 3.73508841e-01, 3.20611417e-01,
          3.54202747e-01, 3.73508841e-01, 3.73508841e-01, 3.73508841e-01,
          3.59497637e-01, 3.59497637e-01, 3.59497637e-01, 3.28786314e-01,
          3.59497637e-01, 3.59497637e-01, 3.59497637e-01, 1.86380133e-01,
          2.79533505e-01, 3.97731870e-01, 3.97731870e-01, 3.97731870e-01,
          1.21988289e-01, 3.97731870e-01, 3.97731870e-01, 3.97731870e-01,
          1.64641187e-01, 6.99652210e-02, 3.60676914e-01, 3.60676914e-01,
          3.60676914e-01, 2.23938435e-01, 3.60676914e-01, 3.60676914e-01,
          3.60676914e-01, 3.60676914e-01, 1.88767895e-01, 3.39614004e-01,
          3.39614004e-01, 3.39614004e-01, 2.71855682e-01, 3.39614004e-01,
          3.39614004e-01, 3.39614004e-01, 3.39614004e-01, 3.39614004e-01,
          8.78910720e-02, 2.68165082e-01, 3.81387353e-01, 3.72070014e-01,
          3.81387353e-01, 3.81387353e-01, 3.81387353e-01, 2.25465775e-01,
          3.81387353e-01, 1.13093078e-01, 4.08140957e-01, 4.08140957e-01,
          4.08140957e-01, 4.08140957e-01, 2.41286799e-01, 4.08140957e-01,
          2.89974242e-01, 8.90684873e-02, 3.39969426e-01, 3.39969426e-01,
          3.39969426e-01, 3.39969426e-01, 3.39969426e-01, 3.39969426e-01,
          3.39969426e-01, 3.39969426e-01, 2.68271267e-01, 3.57226223e-01,
          4.82221633e-01, 1.74413204e-01, 8.95814970e-02, 2.96759337e-01,
          4.85379755e-01, 4.85379755e-01, 1.57144636e-01, 1.12300977e-01,
          0., 1.25544360e-02, 3.76633070e-02, 0., 9.88592803e-01,
          1.06049761e-01, 0., 0., 0., 0., 3.80126014e-02, 5.74951649e-01,
          5.74951649e-01, 5.74951649e-01, 3.32514606e-02, 0., 0., 0.,
          3.42810154e-02, 4.81167389e-03, 2.08723217e-01, 5.61009884e-01,
          5.61009884e-01, 5.61009884e-01, 7.36786574e-02, 1.45235937e-03,
          2.67381500e-03, 2.48854831e-02, 0., 0., 2.58316040e-01,
          6.36879027e-01, 6.36879027e-01, 3.38862360e-01, 1.52877737e-02,
          1.94099220e-03 ]
      - [ 3.92029464e-01, 3.92029464e-01, 2.40149453e-01, 5.49596399e-02,
          2.75547773e-01, 3.01710516e-01, 3.92029464e-01, 3.92029464e-01,
          3.92029464e-01, 4.37544554e-01, 3.30740064e-01, 2.63847746e-02,
          2.24699476e-03, 2.29266971e-01, 2.59219736e-01, 4.37544554e-01,
          4.37544554e-01, 4.37544554e-01, 3.98549438e-01, 3.98549438e-01,
          3.98549438e-01, 3.98549438e-01, 1.34682581e-01, 1.56173810e-01,
          2.09495109e-02, 3.98549438e-01, 3.98549438e-01, 4.15933281e-01,
          3.22139293e-01, 3.01901668e-01, 4.15933281e-01, 1.59526065e-01,
          1.54925779e-01, 2.43873253e-01, 4.15933281e-01, 4.15933281e-01,
          3.46925855e-01, 3.46925855e-01, 3.46925855e-01, 1.83503181e-01,
          3.46925855e-01, 3.46925855e-01, 3.46925855e-01, 3.46925855e-01,
          3.46925855e-01, 3.70967895e-01, 3.70967895e-01, 3.70967895e-01,
          1.48070842e-01, 1.87121689e-01, 3.37121814e-01, 3.70967895e-01,
          3.70967895e-01, 3.70967895e-01, 3.52828532e-01, 3.77658963e-01,
          3.77658963e-01, 3.77658963e-01, 9.87770706e-02, 7.88953081e-02,
          3.77658963e-01, 3.77658963e-01, 3.77658963e-01, 1.73609674e-01,
          3.94184977e-01, 3.94184977e-01, 3.94184977e-01, 1.36366010e-01,
          1.22618586e-01, 3.94184977e-01, 3.94184977e-01, 3.94184977e-01,
          3.45482618e-01, 3.45482618e-01, 3.45482618e-01, 3.45482618e-01,
          3.45482618e-01, 3.16005379e-01, 2.47348502e-01, 3.45482618e-01,
          3.45482618e-01, 3.36910874e-01, 3.36910874e-01, 3.36910874e-01,
          3.36910874e-01, 3.36910874e-01, 3.36910874e-01, 2.97594190e-01,
          3.36910874e-01, 3.36910874e-01, 3.40884387e-01, 3.40884387e-01,
          3.40884387e-01, 3.40884387e-01, 3.40884387e-01, 2.58798599e-01,
          3.40884387e-01, 3.40884387e-01, 3.40884387e-01, 3.37745070e-01,
          3.37745070e-01, 3.37745070e-01, 3.37745070e-01, 3.37745070e-01,
          3.37745070e-01, 3.37745070e-01, 3.37745070e-01, 2.89916545e-01,
          1.95508838e-01, 2.54416972e-01, 5.09452999e-01, 5.09452999e-01,
          5.09452999e-01, 1.61973193e-01, 1.36074796e-01, 1.21411659e-01,
          2.32036114e-01, 2.93790996e-01, 1.23168193e-01, 2.92362839e-01,
          4.58263636e-01, 4.58263636e-01, 4.58263636e-01, 1.55861259e-01,
          1.02540597e-01, 3.78997415e-01, 3.70997310e-01, 1.79059893e-01,
          3.70997310e-01, 3.70997310e-01, 3.70997310e-01, 3.70997310e-01,
          2.38203242e-01, 3.21911871e-01, 3.40099752e-01, 4.26907361e-01,
          3.65968168e-01, 1.09853856e-01, 1.78473413e-01, 4.29620564e-01,
          4.29620564e-01, 4.29620564e-01, 2.00394988e-01, 2.04268441e-01 ]
      - [ 3.87854308e-01, 3.87854308e-01, 3.16914380e-01, 1.72348604e-01,
          3.20554733e-01, 3.87854308e-01, 2.56348014e-01, 3.09504479e-01,
          3.87854308e-01, 4.17162508e-01, 3.00663680e-01, 7.15473071e-02,
          2.69155413e-01, 2.96936005e-01, 2.08808929e-01, 4.17162508e-01,
          4.17162508e-01, 4.17162508e-01, 4.06224012e-01, 4.06224012e-01,
          4.06224012e-01, 2.04255149e-01, 2.79593110e-01, 2.40279108e-01,
          2.64654160e-01, 2.96987772e-01, 4.06224012e-01, 3.75100344e-01,
          3.75100344e-01, 3.16694409e-01, 3.25525999e-01, 2.61195719e-01,
          1.35150120e-01, 3.75100344e-01, 3.75100344e-01, 3.75100344e-01,
          2.86500484e-01, 3.46235961e-01, 3.46235961e-01, 2.74413586e-01,
          3.46235961e-01, 3.46235961e-01, 3.46235961e-01, 3.46235961e-01,
          3.46235961e-01, 3.50990683e-01, 3.50990683e-01, 1.25739321e-01,
          3.43979210e-01, 3.50990683e-01, 3.50990683e-01, 3.50990683e-01,
          3.50990683e-01, 3.50990683e-01, 3.93203169e-01, 3.93203169e-01,
          3.93203169e-01, 1.08951144e-01, 3.93203169e-01, 3.93203169e-01,
          3.93203169e-01, 8.38745832e-02, 2.22518042e-01, 2.87309825e-01,
          3.54748011e-01, 3.54748011e-01, 1.81619778e-01, 3.54748011e-01,
          3.54748011e-01, 3.54748011e-01, 3.54748011e-01, 3.54748011e-01,
          2.01184288e-01, 1.97406530e-01, 4.17141914e-01, 4.17141914e-01,
          4.17141914e-01, 9.25661400e-02, 1.94378525e-01, 4.17141914e-01,
          4.17141914e-01, 3.52403343e-01, 3.52403343e-01, 2.27460817e-01,
          3.52403343e-01, 3.52403343e-01, 3.52403343e-01, 2.74634272e-01,
          3.52403343e-01, 3.52403343e-01, 3.97041529e-01, 3.97041529e-01,
          3.97041529e-01, 1.05957605e-01, 3.97041529e-01, 3.97041529e-01,
          3.97041529e-01, 1.58563778e-01, 1.17525935e-01, 1.72051072e-01,
          3.29437315e-01, 3.76433104e-01, 1.98730901e-01, 3.76433104e-01,
          3.76433104e-01, 3.76433104e-01, 3.76433104e-01, 3.31821591e-01,
          1.45500815e-02, 1.08760208e-01, 5.20721138e-01, 5.20721138e-01,
          5.20721138e-01, 8.13552290e-02, 1.57920450e-01, 1.30979091e-01,
          3.47267419e-01, 9.75544602e-02, 7.18816072e-02, 1.87280357e-01,
          5.33832610e-01, 5.33832610e-01, 5.33832610e-01, 1.69701561e-01,
          1.27179876e-01, 2.12146029e-01, 8.17476884e-02, 2.78861642e-01,
          4.63083267e-01, 4.63083267e-01, 4.63083267e-01, 4.63083267e-01,
          1.95935905e-01, 6.03455082e-02, 1.05409853e-01, 1.17242679e-01,
          1.63678929e-01, 4.16689724e-01, 4.16689724e-01, 4.16689724e-01,
          4.16689724e-01, 4.16689724e-01, 1.68520659e-01, 2.42383718e-01 ]
      - [ 3.81087273e-01, 3.81087273e-01, 3.81087273e-01, 1.55129492e-01,
          3.81087273e-01, 3.81087273e-01, 2.71603376e-01, 1.64299592e-01,
          3.81087273e-01, 3.71945947e-01, 3.35675120e-01, 2.50131428e-01,
          3.71945947e-01, 2.43465737e-01, 2.64662296e-01, 3.71945947e-01,
          3.71945947e-01, 3.71945947e-01, 4.29679543e-01, 7.23949447e-02,
          9.52973962e-03, 2.53980756e-01, 1.11453779e-01, 1.75210133e-01,
          4.82217312e-01, 4.82217312e-01, 4.82217312e-01, 7.04615593e-01,
          0., 0., 0., 0., 0., 0., 0., 7.04615593e-01, 3.37459236e-01,
          3.37459236e-01, 3.37459236e-01, 2.92571872e-01, 3.37459236e-01,
          3.37459236e-01, 3.37459236e-01, 3.37459236e-01, 3.37459236e-01,
          3.32778692e-01, 3.32778692e-01, 3.32778692e-01, 3.32778692e-01,
          3.32778692e-01, 3.32778692e-01, 3.32778692e-01, 3.32778692e-01,
          3.32778692e-01, 3.80362362e-01, 3.80362362e-01, 2.95337915e-01,
          7.23769292e-02, 1.88902304e-01, 3.80362362e-01, 3.80362362e-01,
          3.80362362e-01, 3.80362362e-01, 3.94979328e-01, 3.94979328e-01,
          2.31792614e-01, 7.29214922e-02, 2.85256058e-01, 3.94979328e-01,
          3.94979328e-01, 3.14206392e-01, 3.64523709e-01, 3.58141929e-01,
          3.58141929e-01, 3.58141929e-01, 2.68060744e-01, 3.58141929e-01,
          3.58141929e-01, 3.58141929e-01, 3.58141929e-01, 1.63419008e-01,
          3.37723523e-01, 3.37723523e-01, 3.37723523e-01, 3.37723523e-01,
          3.37723523e-01, 3.37723523e-01, 3.37723523e-01, 2.90117651e-01,
          3.37723523e-01, 3.93373698e-01, 3.93373698e-01, 3.93373698e-01,
          4.06633727e-02, 3.93373698e-01, 3.93373698e-01, 3.93373698e-01,
          1.94311455e-01, 1.67935967e-01, 4.26489264e-01, 4.26489264e-01,
          2.43439659e-01, 3.59382667e-02, 4.26489264e-01, 4.26489264e-01,
          4.26489264e-01, 1.44216791e-01, 7.01519102e-02, 3.82264465e-01,
          3.82264465e-01, 3.82264465e-01, 2.94695348e-01, 3.82264465e-01,
          3.82264465e-01, 3.62243593e-01, 1.96990386e-01, 9.31646079e-02,
          4.25482661e-01, 4.25482661e-01, 2.25072816e-01, 1.30888879e-01,
          4.25482661e-01, 4.25482661e-01, 4.25482661e-01, 1.22422360e-01,
          8.82901177e-02, 7.84638822e-02, 4.18337174e-02, 1.67044669e-01,
          7.81560987e-02, 6.21738672e-01, 6.21738672e-01, 4.11093384e-01,
          8.35038349e-03, 9.84265506e-02, 0., 0., 0., 0., 9.86893356e-01,
          1.27266407e-01, 0., 0., 0. ]
      - [ 3.70657623e-01, 3.70657623e-01, 3.70657623e-01, 1.65770710e-01,
          3.70657623e-01, 8.43067393e-02, 3.70657623e-01, 3.70657623e-01,
          3.70657623e-01, 2.22556740e-01, 0., 0., 0., 3.30956317e-02,
          1.30188450e-01, 5.55839717e-01, 5.55839717e-01, 5.55839717e-01,
          6.21034503e-01, 6.21034503e-01, 0., 0., 0., 0., 0., 0.,
          4.71626520e-01, 5.12274206e-01, 4.55641538e-01, 0., 0., 0., 0.,
          0., 5.12274206e-01, 5.12274206e-01, 2.56183684e-01,
          3.71497571e-01, 3.71497571e-01, 2.40120113e-01, 3.71497571e-01,
          3.71497571e-01, 3.71497571e-01, 3.71497571e-01, 2.11985990e-01,
          4.34764922e-01, 4.34764922e-01, 7.03343675e-02, 7.57081211e-02,
          1.28913417e-01, 1.63805217e-01, 4.34764922e-01, 4.34764922e-01,
          4.30633903e-01, 4.68746990e-01, 4.68746990e-01, 8.77683684e-02,
          1.77036390e-01, 3.12351644e-01, 3.97552729e-01, 3.91044497e-01,
          1.64041296e-01, 2.85286367e-01, 3.60840052e-01, 3.60840052e-01,
          1.50434732e-01, 2.49650821e-01, 3.60840052e-01, 3.60840052e-01,
          3.60840052e-01, 3.60840052e-01, 3.60840052e-01, 3.77309382e-01,
          3.77309382e-01, 3.77309382e-01, 3.77309382e-01, 2.06682518e-01,
          3.77309382e-01, 3.77309382e-01, 2.69695371e-01, 1.63104042e-01,
          3.99562746e-01, 3.99562746e-01, 1.89215690e-01, 2.97579676e-01,
          3.99562746e-01, 3.99562746e-01, 3.99562746e-01, 1.63714379e-01,
          2.15865195e-01, 4.11612570e-01, 4.04556662e-01, 9.78764296e-02,
          3.31452042e-01, 4.11612570e-01, 4.11612570e-01, 4.11612570e-01,
          1.66457057e-01, 8.58734250e-02, 4.45857763e-01, 1.95184097e-01,
          9.40014943e-02, 1.54709190e-01, 4.51318473e-01, 4.51318473e-01,
          4.51318473e-01, 1.41972929e-01, 3.07592809e-01, 3.68913859e-01,
          3.68913859e-01, 3.68913859e-01, 3.68913859e-01, 3.68913859e-01,
          3.68913859e-01, 3.68913859e-01, 1.15716405e-01, 1.73901930e-01,
          2.74563402e-01, 3.12357932e-01, 1.36946872e-01, 2.74666578e-01,
          4.88883585e-01, 4.88883585e-01, 4.88883585e-01, 6.15829788e-02,
          8.45836625e-02, 0., 0., 3.90389077e-02, 8.85857195e-02,
          6.98172271e-01, 6.98172271e-01, 9.36481208e-02, 0., 0., 0., 0.,
          0., 0., 0., 0., 0., 0., 0. ]
      - [ 3.83846402e-01, 3.83846402e-01, 3.83846402e-01, 2.24327639e-01,
          2.62922406e-01, 3.83846402e-01, 2.41421103e-01, 2.85901636e-01,
          3.83846402e-01, 3.72592449e-01, 3.72592449e-01, 2.42623895e-01,
          1.39484972e-01, 3.55123460e-01, 3.72592449e-01, 3.72592449e-01,
          3.12596709e-01, 3.72592449e-01, 3.43007982e-01, 3.43007982e-01,
          3.43007982e-01, 3.43007982e-01, 3.43007982e-01, 2.35238418e-01,
          3.43007982e-01, 3.43007982e-01, 3.43007982e-01, 2.84891397e-01,
          3.43233764e-01, 3.53470027e-01, 3.53470027e-01, 3.53470027e-01,
          2.18745649e-01, 3.53470027e-01, 3.53470027e-01, 3.53470027e-01,
          3.44728619e-01, 3.44728619e-01, 3.44728619e-01, 2.14133710e-01,
          3.44728619e-01, 3.44728619e-01, 3.44728619e-01, 3.44728619e-01,
          3.44728619e-01, 3.45164388e-01, 3.45164388e-01, 3.45164388e-01,
          3.16757560e-01, 3.45164388e-01, 3.45164388e-01, 3.45164388e-01,
          3.32971454e-01, 2.65547127e-01, 3.32778692e-01, 3.32778692e-01,
          3.32778692e-01, 3.32778692e-01, 3.32778692e-01, 3.32778692e-01,
          3.32778692e-01, 3.32778692e-01, 3.32778692e-01, 3.32778692e-01,
          3.32778692e-01, 3.32778692e-01, 3.32778692e-01, 3.32778692e-01,
          3.32778692e-01, 3.32778692e-01, 3.32778692e-01, 3.32778692e-01,
          3.91425975e-02, 3.22281629e-01, 3.93203348e-01, 3.27333122e-01,
          3.93203348e-01, 3.93203348e-01, 3.93203348e-01, 3.93203348e-01,
          1.02386095e-01, 2.26532578e-01, 2.38409966e-01, 4.16038424e-01,
          4.16038424e-01, 4.16038424e-01, 1.56976104e-01, 2.10070729e-01,
          4.16038424e-01, 3.55759203e-01, 3.44617218e-01, 3.44617218e-01,
          3.44617218e-01, 3.44617218e-01, 3.44617218e-01, 3.44617218e-01,
          2.15566173e-01, 3.44617218e-01, 3.44617218e-01, 4.04915720e-01,
          4.04915720e-01, 1.13678314e-01, 1.02367714e-01, 4.04915720e-01,
          4.04915720e-01, 4.04915720e-01, 2.64576286e-01, 2.87695497e-01,
          0., 0., 0., 0., 9.95024860e-01, 0., 0., 0., 0., 0.,
          2.22069263e-01, 5.23962021e-01, 5.23962021e-01, 5.23962021e-01,
          0., 0., 1.96436733e-01, 2.88541824e-01, 1.35586336e-01,
          2.55204886e-01, 2.42468551e-01, 4.66467619e-01, 4.66467619e-01,
          4.66467619e-01, 1.85432866e-01, 2.92763442e-01, 2.83133686e-01,
          1.36496559e-01, 3.13119292e-01, 5.76249249e-02, 2.25045219e-01,
          5.09767950e-01, 5.09767950e-01, 5.09767950e-01, 1.88913986e-01,
          9.48120654e-02 ]
      - [ 4.47663277e-01, 4.47663277e-01, 3.25333178e-01, 1.06043983e-02,
          3.29685628e-01, 4.47663277e-01, 4.03827906e-01, 0.,
          1.28831491e-01, 4.07458395e-01, 4.07458395e-01, 1.98181435e-01,
          1.12519585e-01, 4.07458395e-01, 4.07458395e-01, 3.20355326e-01,
          1.06083982e-01, 4.07458395e-01, 4.18612450e-01, 1.37092590e-01,
          2.59740114e-01, 4.18612450e-01, 4.18612450e-01, 1.31617576e-01,
          1.26704112e-01, 4.18612450e-01, 4.18612450e-01, 1.21984944e-01,
          1.85428597e-02, 2.09507495e-01, 5.09217024e-01, 2.71303296e-01,
          7.89826829e-03, 2.90212095e-01, 5.09217024e-01, 5.09217024e-01,
          3.82638425e-01, 3.82638425e-01, 3.82638425e-01, 1.24798134e-01,
          3.82638425e-01, 3.82638425e-01, 3.82638425e-01, 1.79729640e-01,
          2.64247864e-01, 4.20671701e-01, 3.70834559e-01, 2.26622865e-01,
          6.58518597e-02, 4.20671701e-01, 4.20671701e-01, 4.20671701e-01,
          1.76545203e-01, 2.52107173e-01, 3.57007712e-01, 3.57007712e-01,
          3.57007712e-01, 3.57007712e-01, 3.57007712e-01, 2.03550637e-01,
          2.50636548e-01, 3.57007712e-01, 3.57007712e-01, 3.37290823e-01,
          3.04497868e-01, 3.37290823e-01, 3.37290823e-01, 3.37290823e-01,
          3.27956289e-01, 3.37290823e-01, 3.37290823e-01, 3.37290823e-01,
          2.29625240e-01, 1.11738697e-01, 4.24067110e-01, 4.24067110e-01,
          4.24067110e-01, 6.08174801e-02, 1.66394815e-01, 4.24067110e-01,
          4.24067110e-01, 3.99176151e-01, 2.14886636e-01, 3.28061908e-01,
          3.99176151e-01, 3.99176151e-01, 1.57070458e-01, 1.44333631e-01,
          3.99176151e-01, 3.99176151e-01, 4.01749611e-01, 4.01749611e-01,
          2.28356794e-01, 1.16182461e-01, 2.96161085e-01, 4.01749611e-01,
          4.01749611e-01, 1.88722655e-01, 4.01749611e-01, 4.13014948e-01,
          4.13014948e-01, 1.54204711e-01, 1.07838668e-01, 4.13014948e-01,
          4.13014948e-01, 4.13014948e-01, 2.19690084e-01, 2.43506432e-01,
          5.90491667e-02, 1.04865506e-02, 4.46685940e-01, 4.46685940e-01,
          4.46685940e-01, 1.87938325e-02, 7.68702477e-02, 4.33088571e-01,
          4.46685940e-01, 2.78343052e-01, 2.15455174e-01, 3.55396181e-01,
          4.40415621e-01, 4.40415621e-01, 3.15019816e-01, 8.55354890e-02,
          2.38635391e-01, 4.40415621e-01, 2.61998445e-01, 2.71534085e-01,
          1.64065152e-01, 4.02666390e-01, 4.02666390e-01, 4.02666390e-01,
          4.02666390e-01, 3.33280265e-01, 2.58939236e-01, 6.12949394e-02,
          3.39959189e-02, 0., 2.44922917e-02, 3.89394432e-01,
          5.60274005e-01, 5.60274005e-01, 4.43144768e-01, 1.14338718e-01 ]
      - [ 4.34869498e-01, 4.34869498e-01, 3.92904073e-01, 2.29524136e-01,
          1.98292881e-01, 2.61712164e-01, 1.38247773e-01, 3.07149619e-01,
          4.34869498e-01, 4.28783089e-01, 4.25181866e-01, 2.42296979e-01,
          2.93112308e-01, 1.09632693e-01, 1.56672403e-01, 2.86677718e-01,
          4.28783089e-01, 4.28783089e-01, 4.47127908e-01, 4.47127908e-01,
          1.06225289e-01, 2.32386023e-01, 2.86664695e-01, 4.47127908e-01,
          1.13982029e-01, 1.88107938e-01, 4.47127908e-01, 4.08818066e-01,
          2.34788060e-01, 1.33200347e-01, 4.08818066e-01, 3.21987808e-01,
          2.13440970e-01, 3.24478269e-01, 4.08818066e-01, 4.08818066e-01,
          3.32778692e-01, 3.32778692e-01, 3.32778692e-01, 3.32778692e-01,
          3.32778692e-01, 3.32778692e-01, 3.32778692e-01, 3.32778692e-01,
          3.32778692e-01, 3.32885802e-01, 3.32885802e-01, 3.32885802e-01,
          3.32885802e-01, 3.32885802e-01, 3.31919253e-01, 3.32885802e-01,
          3.32885802e-01, 3.32885802e-01, 3.68572205e-01, 3.68572205e-01,
          3.68572205e-01, 2.56981492e-01, 3.31678748e-01, 3.68572205e-01,
          3.68572205e-01, 3.21359068e-01, 1.94340944e-01, 1.02737956e-01,
          3.79295021e-01, 3.79295021e-01, 3.79295021e-01, 1.97210014e-01,
          2.98359752e-01, 3.79295021e-01, 3.79295021e-01, 3.72050583e-01,
          3.32778692e-01, 3.32778692e-01, 3.32778692e-01, 3.32778692e-01,
          3.32778692e-01, 3.32778692e-01, 3.32778692e-01, 3.32778692e-01,
          3.32778692e-01, 3.55504006e-01, 3.55504006e-01, 3.25855106e-01,
          3.55504006e-01, 3.55504006e-01, 3.55504006e-01, 2.50855982e-01,
          2.62752861e-01, 3.55504006e-01, 3.33592594e-01, 3.26182157e-01,
          3.33592594e-01, 3.33592594e-01, 3.33592594e-01, 3.33592594e-01,
          3.33592594e-01, 3.33592594e-01, 3.33592594e-01, 3.82112145e-01,
          3.82112145e-01, 3.82112145e-01, 2.09782049e-01, 2.10508808e-01,
          3.82112145e-01, 3.82112145e-01, 3.82112145e-01, 1.78331509e-01,
          1.67926103e-01, 2.06894428e-01, 5.05353868e-01, 5.05353868e-01,
          5.05353868e-01, 3.19853753e-01, 1.81082189e-01, 8.02501515e-02,
          1.27528802e-01, 2.68631309e-01, 1.32395983e-01, 2.81841725e-01,
          4.91247982e-01, 4.91247982e-01, 4.91247982e-01, 2.57105082e-01,
          8.42024982e-02, 1.69707224e-01, 1.81179494e-01, 1.58430412e-01,
          2.77644843e-01, 4.58072156e-01, 4.58072156e-01, 4.40898746e-01,
          1.46061093e-01, 2.56550759e-01, 3.99008453e-01, 2.54304230e-01,
          2.04735875e-01, 1.14651546e-01, 3.06902558e-01, 4.56578493e-01,
          4.56578493e-01, 4.56578493e-01, 3.11487556e-01, 2.43108422e-01 ]
      - [ 4.28625166e-01, 4.28625166e-01, 3.40183944e-01, 7.08237290e-03,
          2.26803556e-01, 1.83890730e-01, 4.28625166e-01, 2.44559556e-01,
          4.28625166e-01, 4.04839277e-01, 4.04839277e-01, 2.38578394e-01,
          4.85675456e-03, 1.26744658e-01, 3.21674019e-01, 4.04839277e-01,
          4.04839277e-01, 4.04839277e-01, 5.31311095e-01, 0., 0., 0., 0.,
          0., 5.31311095e-01, 3.84473085e-01, 5.31311095e-01,
          7.02849567e-01, 0., 0., 0., 0., 0., 6.70070052e-02,
          2.23356672e-02, 7.02849567e-01, 3.70000750e-01, 3.70000750e-01,
          3.70000750e-01, 1.95634484e-01, 3.70000750e-01, 3.70000750e-01,
          3.38967204e-01, 1.47405475e-01, 3.70000750e-01, 3.51495832e-01,
          3.51495832e-01, 2.72739828e-01, 2.76479006e-01, 3.51495832e-01,
          3.51495832e-01, 3.51495832e-01, 3.23055148e-01, 3.51495832e-01,
          4.13008898e-01, 3.35860044e-01, 1.13765135e-01, 2.36537442e-01,
          4.13008898e-01, 4.13008898e-01, 2.06087738e-01, 2.99001932e-01,
          4.13008898e-01, 3.50463301e-01, 3.50463301e-01, 1.17907435e-01,
          3.50463301e-01, 3.50463301e-01, 3.50463301e-01, 3.50463301e-01,
          3.50463301e-01, 3.50463301e-01, 3.80484968e-01, 3.80484968e-01,
          3.80484968e-01, 3.80484968e-01, 3.80484968e-01, 3.80484968e-01,
          1.30878672e-01, 1.40015692e-01, 3.01417291e-01, 3.21193546e-01,
          2.71493047e-01, 2.01160192e-01, 4.27050173e-01, 4.27050173e-01,
          4.27050173e-01, 1.41459227e-01, 2.32366502e-01, 3.96578461e-01,
          4.51206654e-01, 1.68735534e-01, 1.35882795e-01, 4.51206654e-01,
          4.51206654e-01, 4.51206654e-01, 1.32713005e-01, 1.66341662e-01,
          2.98203349e-01, 2.33041033e-01, 1.97892115e-01, 1.18905589e-01,
          3.85139167e-01, 3.85139167e-01, 3.85139167e-01, 3.85139167e-01,
          3.83254081e-01, 3.85139167e-01, 4.46215838e-01, 0., 0., 0.,
          4.46215838e-01, 0., 4.46215838e-01, 4.46215838e-01,
          4.46215838e-01, 0., 0., 0., 0., 0., 0., 0., 0., 0., 0., 0., 0.,
          6.40559793e-01, 7.58001089e-01, 0., 0., 0., 0., 0., 0., 0.,
          4.38479900e-01, 8.67792547e-01, 0., 2.03497320e-01,
          6.78324327e-02, 0. ]
      - [ 4.04421300e-01, 4.04421300e-01, 4.04421300e-01, 3.46519768e-01,
          1.36767700e-01, 6.62654489e-02, 1.87094718e-01, 4.04421300e-01,
          4.04421300e-01, 4.21166092e-01, 4.21166092e-01, 1.63240299e-01,
          2.48234272e-01, 1.33584380e-01, 5.26868030e-02, 4.21166092e-01,
          4.21166092e-01, 4.21166092e-01, 3.75387758e-01, 3.75387758e-01,
          3.75387758e-01, 3.75387758e-01, 3.75387758e-01, 2.95174688e-01,
          1.80353492e-01, 1.76347598e-01, 3.75387758e-01, 3.56010050e-01,
          3.50120664e-01, 3.56010050e-01, 3.22268933e-01, 2.81514943e-01,
          2.38819599e-01, 3.56010050e-01, 3.56010050e-01, 3.56010050e-01,
          3.32778692e-01, 3.32778692e-01, 3.32778692e-01, 3.32778692e-01,
          3.32778692e-01, 3.32778692e-01, 3.32778692e-01, 3.32778692e-01,
          3.32778692e-01, 3.32778692e-01, 3.32778692e-01, 3.32778692e-01,
          3.32778692e-01, 3.32778692e-01, 3.32778692e-01, 3.32778692e-01,
          3.32778692e-01, 3.32778692e-01, 2.64322788e-01, 3.55081290e-01,
          3.55081290e-01, 3.55081290e-01, 3.55081290e-01, 2.66193926e-01,
          3.55081290e-01, 3.55081290e-01, 3.15008253e-01, 2.06884012e-01,
          3.55150521e-01, 3.55150521e-01, 3.55150521e-01, 2.68431216e-01,
          3.55150521e-01, 3.55150521e-01, 3.55150521e-01, 3.53276074e-01,
          1.60960391e-01, 3.63102496e-01, 3.63102496e-01, 3.63102496e-01,
          3.63102496e-01, 3.63102496e-01, 3.63102496e-01, 2.18082890e-01,
          3.63102496e-01, 1.78406000e-01, 2.57681966e-01, 3.85020852e-01,
          3.85020852e-01, 3.85020852e-01, 2.74613857e-01, 2.85143763e-01,
          3.85020852e-01, 3.85020852e-01, 3.32778692e-01, 3.32778692e-01,
          3.32778692e-01, 3.32778692e-01, 3.32778692e-01, 3.32778692e-01,
          3.32778692e-01, 3.32778692e-01, 3.32778692e-01, 3.57797265e-01,
          3.57797265e-01, 2.91949898e-01, 3.22973996e-01, 3.56358826e-01,
          3.57797265e-01, 3.57797265e-01, 1.99480250e-01, 3.57797265e-01,
          0., 3.48548889e-02, 1.04564652e-01, 2.98038304e-01,
          7.42741585e-01, 5.81572890e-01, 3.93297635e-02, 1.31099215e-02,
          0., 6.47529215e-02, 9.50935632e-02, 4.83702660e-01,
          4.83702660e-01, 4.83702660e-01, 1.66591227e-01, 9.01118666e-02,
          1.00931898e-01, 4.83702660e-01, 2.78713435e-01, 1.29409969e-01,
          3.79378289e-01, 3.79378289e-01, 3.79378289e-01, 3.79378289e-01,
          3.79378289e-01, 1.95485204e-01, 3.79378289e-01, 2.50805289e-01,
          1.18189685e-01, 1.88564017e-01, 2.54965276e-01, 5.00440955e-01,
          5.00440955e-01, 5.00440955e-01, 1.41239226e-01, 2.15160891e-01 ]
      - [ 4.20088291e-01, 4.20088291e-01, 2.78324723e-01, 1.87311739e-01,
          4.20088291e-01, 3.07900488e-01, 1.46615669e-01, 3.16264421e-01,
          3.70821506e-01, 3.82923335e-01, 3.36441159e-01, 2.98620284e-01,
          2.89056391e-01, 3.14940393e-01, 1.59451500e-01, 3.81773531e-01,
          3.82923335e-01, 3.82923335e-01, 2.84740120e-01, 1.19404137e-01,
          2.00041924e-02, 0., 2.62391027e-02, 1.16677597e-01,
          5.42998135e-01, 5.42998135e-01, 5.42998135e-01, 7.00647295e-01,
          0., 0., 0., 0., 0., 1.00366086e-01, 3.34553607e-02,
          7.00647295e-01, 3.38394284e-01, 3.38394284e-01, 3.38394284e-01,
          3.38394284e-01, 3.38394284e-01, 3.38394284e-01, 3.38394284e-01,
          3.06939512e-01, 3.17541122e-01, 3.60870510e-01, 3.60870510e-01,
          3.60870510e-01, 3.60870510e-01, 3.12112778e-01, 2.38681465e-01,
          3.60870510e-01, 3.60870510e-01, 2.46264488e-01, 4.84704703e-01,
          4.84704703e-01, 1.84742048e-01, 8.57174322e-02, 9.47490856e-02,
          2.03876048e-01, 4.84704703e-01, 3.80653054e-01, 2.31141314e-01,
          3.92031848e-01, 3.92031848e-01, 3.18904072e-01, 2.13788860e-02,
          2.33622134e-01, 3.92031848e-01, 3.92031848e-01, 2.66275555e-01,
          3.92031848e-01, 3.44444066e-01, 3.44444066e-01, 3.44444066e-01,
          3.44444066e-01, 2.17772394e-01, 3.44444066e-01, 3.44444066e-01,
          3.44444066e-01, 3.44444066e-01, 3.50456804e-01, 3.50456804e-01,
          3.50456804e-01, 3.46885115e-01, 3.50456804e-01, 3.50456804e-01,
          3.50456804e-01, 2.01486796e-01, 3.14090103e-01, 4.29308504e-01,
          3.08087409e-01, 3.30093771e-01, 1.69293508e-01, 4.29308504e-01,
          4.29308504e-01, 4.29308504e-01, 1.38548627e-01, 8.21736827e-02,
          4.48174536e-01, 2.34812483e-01, 2.58892894e-01, 8.00859556e-02,
          4.48174536e-01, 4.48174536e-01, 4.48174536e-01, 1.80817172e-01,
          1.75529808e-01, 1.87171176e-01, 2.97764510e-01, 3.69523615e-01,
          3.69523615e-01, 3.69523615e-01, 3.69523615e-01, 2.83193946e-01,
          3.40261549e-01, 3.61170262e-01, 3.86345387e-01, 2.15691805e-01,
          1.80814803e-01, 3.39231282e-01, 5.15790164e-01, 5.15790164e-01,
          3.26132178e-01, 9.64700207e-02, 5.95278665e-02, 1.34795904e-02,
          1.52864819e-03, 1.79648638e-01, 1.76873997e-01, 6.60856485e-01,
          6.60856485e-01, 2.36479566e-01, 1.49643794e-02, 7.16471300e-03,
          0., 0., 0., 0., 6.99783027e-01, 6.99783027e-01, 1.16713047e-01,
          0., 0. ]
      - [ 5.07775128e-01, 5.07775128e-01, 3.78612012e-01, 4.75212149e-02,
          1.27795935e-01, 5.07775128e-01, 5.35765029e-02, 1.71524361e-02,
          2.37318978e-01, 4.28800315e-01, 4.28800315e-01, 1.44130394e-01,
          1.13827817e-01, 4.28800315e-01, 4.28800315e-01, 5.65576218e-02,
          2.04595253e-01, 4.25969034e-01, 4.15755123e-01, 1.75972626e-01,
          1.32551670e-01, 4.15755123e-01, 4.15755123e-01, 2.54360259e-01,
          1.35461107e-01, 4.15755123e-01, 4.15755123e-01, 1.58104956e-01,
          3.81634496e-02, 1.22034542e-01, 5.47229409e-01, 1.24214284e-01,
          1.36984944e-01, 1.43579438e-01, 5.47229409e-01, 5.47229409e-01,
          3.64591926e-01, 3.64591926e-01, 3.64591926e-01, 2.31459960e-01,
          3.64591926e-01, 3.64591926e-01, 3.61845016e-01, 1.19534083e-01,
          3.64591926e-01, 4.05761451e-01, 4.05761451e-01, 4.05761451e-01,
          1.11679971e-01, 4.05761451e-01, 4.05761451e-01, 2.80392855e-01,
          1.74378023e-01, 2.26350695e-01, 3.32778692e-01, 3.32778692e-01,
          3.32778692e-01, 3.32778692e-01, 3.32778692e-01, 3.32778692e-01,
          3.32778692e-01, 3.32778692e-01, 3.32778692e-01, 3.19385469e-01,
          2.69774497e-01, 3.43708247e-01, 3.43708247e-01, 3.36107820e-01,
          3.43708247e-01, 3.43708247e-01, 3.43708247e-01, 3.43708247e-01,
          3.39390963e-01, 3.39390963e-01, 3.39390963e-01, 3.39390963e-01,
          3.39390963e-01, 3.39390963e-01, 3.39390963e-01, 2.74078667e-01,
          3.39390963e-01, 6.52248785e-02, 3.62504154e-01, 3.62504154e-01,
          3.62504154e-01, 3.62504154e-01, 3.40685785e-01, 3.62504154e-01,
          3.07833016e-01, 3.52490604e-01, 3.32778692e-01, 3.32778692e-01,
          3.32778692e-01, 3.32778692e-01, 3.32778692e-01, 3.32778692e-01,
          3.32778692e-01, 3.32778692e-01, 3.32778692e-01, 4.07142490e-01,
          4.07142490e-01, 2.08372563e-01, 2.40764961e-01, 3.61192524e-01,
          4.07142490e-01, 4.07142490e-01, 2.63576925e-01, 1.77631721e-01,
          1.66969746e-01, 1.46388754e-01, 3.83352727e-01, 4.29223865e-01,
          4.29223865e-01, 4.29223865e-01, 4.29223865e-01, 1.76276222e-01,
          1.77309290e-01, 1.18896430e-02, 1.56598151e-01, 5.02035558e-01,
          5.02035558e-01, 3.17226291e-01, 2.91801840e-01, 3.41655940e-01,
          2.43734628e-01, 3.22995216e-01, 1.66645572e-01, 9.23114792e-02,
          3.30611944e-01, 4.65308875e-01, 4.65308875e-01, 4.65308875e-01,
          1.00281321e-01, 1.22451231e-01, 4.18530941e-01, 2.02760696e-01,
          4.16616872e-02, 4.44609150e-02, 7.35859647e-02, 5.47576129e-01,
          5.47576129e-01, 5.47576129e-01, 7.00112134e-02, 1.99679658e-01 ]
      - [ 4.07330573e-01, 4.07330573e-01, 4.07330573e-01, 1.85925528e-01,
          4.07330573e-01, 2.12716669e-01, 1.76685825e-01, 2.35170946e-01,
          4.07330573e-01, 3.51012498e-01, 3.51012498e-01, 2.35797614e-01,
          3.51012498e-01, 3.51012498e-01, 2.80042827e-01, 3.51012498e-01,
          3.51012498e-01, 3.51012498e-01, 4.00525182e-01, 3.56163323e-01,
          1.16891667e-01, 3.94192338e-01, 1.53160155e-01, 1.86963856e-01,
          4.00525182e-01, 4.00525182e-01, 4.00525182e-01, 4.19955254e-01,
          4.19955254e-01, 0., 2.40668178e-01, 2.47397423e-02,
          2.52109796e-01, 4.10198212e-01, 4.19955254e-01, 4.19955254e-01,
          3.57639462e-01, 3.57639462e-01, 3.57639462e-01, 3.30731958e-01,
          3.57639462e-01, 3.57639462e-01, 2.95809478e-01, 1.79175824e-01,
          3.57639462e-01, 3.32778692e-01, 3.32778692e-01, 3.32778692e-01,
          3.32778692e-01, 3.32778692e-01, 3.32778692e-01, 3.32778692e-01,
          3.32778692e-01, 3.32778692e-01, 3.53903502e-01, 3.53903502e-01,
          3.47723186e-01, 2.00682372e-01, 3.53903502e-01, 3.53903502e-01,
          3.53903502e-01, 2.89470792e-01, 3.53903502e-01, 3.52321774e-01,
          3.52321774e-01, 9.32095870e-02, 3.52321774e-01, 3.52321774e-01,
          3.52321774e-01, 3.52321774e-01, 3.44786078e-01, 3.52321774e-01,
          3.76452476e-01, 3.76452476e-01, 3.76452476e-01, 2.75046587e-01,
          3.76452476e-01, 3.76452476e-01, 3.76452476e-01, 1.01100028e-01,
          2.45088696e-01, 3.63621742e-01, 3.63621742e-01, 3.63621742e-01,
          2.41878301e-01, 3.63621742e-01, 3.63621742e-01, 3.63621742e-01,
          3.14156920e-01, 2.14108825e-01, 2.27620676e-01, 3.54413480e-01,
          3.83480817e-01, 2.21891612e-01, 3.83480817e-01, 3.83480817e-01,
          3.83480817e-01, 3.83480817e-01, 1.85000613e-01, 3.61996531e-01,
          3.61996531e-01, 3.61996531e-01, 1.96067244e-01, 3.61996531e-01,
          3.61996531e-01, 3.61996531e-01, 2.01619625e-01, 3.61996531e-01,
          0., 2.04363763e-02, 6.13091327e-02, 0., 9.77865398e-01,
          1.72765344e-01, 0., 0., 0., 0., 4.01456326e-01, 4.01456326e-01,
          4.01456326e-01, 4.01456326e-01, 4.01456326e-01, 4.01456326e-01,
          1.70254141e-01, 0., 0., 1.90909296e-01, 4.09312069e-01,
          3.59400272e-01, 4.09312069e-01, 4.09312069e-01, 4.09312069e-01,
          4.00188267e-01, 0., 1.80368766e-01, 4.56782430e-01,
          4.56782430e-01, 0., 4.56782430e-01, 0., 4.56782430e-01,
          3.09468597e-01, 1.80368766e-01 ]
      - [ 3.93816859e-01, 3.93816859e-01, 3.93816859e-01, 1.48478329e-01,
          1.88392833e-01, 8.93184468e-02, 3.93816859e-01, 3.93816859e-01,
          3.93816859e-01, 8.73673335e-02, 0., 0., 0., 1.11368448e-01,
          9.74633992e-02, 5.67098498e-01, 5.67098498e-01, 5.67098498e-01,
          0., 0., 0., 0., 0., 0., 0., 0., 0., 0., 0., 0., 0., 0., 0., 0.,
          0., 0., 3.29988837e-01, 3.97802770e-01, 3.97802770e-01,
          3.97802770e-01, 1.33570954e-01, 7.07753450e-02, 3.97802770e-01,
          3.97802770e-01, 2.70273626e-01, 3.95200193e-01, 3.95200193e-01,
          2.80333430e-01, 8.85411277e-02, 1.27610967e-01, 3.95200193e-01,
          3.95200193e-01, 3.35298598e-01, 3.95200193e-01, 4.18320328e-01,
          3.14728528e-01, 3.96159917e-01, 2.02039525e-01, 3.37005258e-01,
          3.09606940e-01, 3.02255094e-01, 2.19621316e-01, 4.18320328e-01,
          3.74854296e-01, 2.79046267e-01, 1.66065559e-01, 3.02669197e-01,
          3.10842454e-01, 3.74854296e-01, 3.74854296e-01, 3.74854296e-01,
          3.74854296e-01, 2.72286534e-01, 3.61719459e-01, 3.61719459e-01,
          3.61719459e-01, 2.77828366e-01, 3.61719459e-01, 3.61719459e-01,
          3.61719459e-01, 2.44972959e-01, 3.88526291e-01, 3.88526291e-01,
          2.85981178e-01, 2.52979189e-01, 3.88526291e-01, 3.88526291e-01,
          3.88526291e-01, 2.49883458e-01, 1.82015792e-01, 3.70002866e-01,
          2.46672675e-01, 3.34356010e-01, 3.70002866e-01, 3.70002866e-01,
          3.70002866e-01, 3.70002866e-01, 2.13674992e-01, 3.05768460e-01,
          2.54282832e-01, 1.24002524e-01, 1.55184865e-01, 3.85579467e-01,
          3.85579467e-01, 3.85579467e-01, 3.85579467e-01, 3.85579467e-01,
          3.85579467e-01, 2.52261251e-01, 3.39104921e-01, 3.68918180e-01,
          3.68918180e-01, 3.68918180e-01, 3.68918180e-01, 3.55590433e-01,
          3.68918180e-01, 1.03627920e-01, 1.79835871e-01, 1.57895029e-01,
          1.05607413e-01, 4.39756304e-01, 4.68189389e-01, 4.68189389e-01,
          4.68189389e-01, 2.69804150e-01, 5.58121651e-02, 0., 0.,
          1.19068250e-02, 2.51381714e-02, 7.00771332e-01, 7.00771332e-01,
          1.00348197e-01, 0., 0., 0., 0., 5.35871834e-02, 1.85168013e-01,
          9.07149792e-01, 3.61759037e-01, 0., 0., 0. ]
      - [ 3.54577065e-01, 3.54577065e-01, 3.54577065e-01, 1.59450933e-01,
          3.07378143e-01, 3.49574208e-01, 3.54577065e-01, 3.54577065e-01,
          3.54577065e-01, 3.78604382e-01, 3.08332443e-01, 3.17266256e-01,
          1.68259084e-01, 2.35527202e-01, 3.78604382e-01, 3.78604382e-01,
          3.78604382e-01, 3.78604382e-01, 4.14950132e-01, 4.14950132e-01,
          4.14950132e-01, 2.27648780e-01, 4.14950132e-01, 2.35737056e-01,
          2.75818646e-01, 1.36671364e-01, 3.23989868e-01, 3.57753009e-01,
          3.57753009e-01, 3.57753009e-01, 2.99150765e-01, 3.57753009e-01,
          1.04995489e-01, 3.57753009e-01, 3.57753009e-01, 3.57753009e-01,
          3.32778692e-01, 3.32778692e-01, 3.32778692e-01, 3.32778692e-01,
          3.32778692e-01, 3.32778692e-01, 3.32778692e-01, 3.32778692e-01,
          3.32778692e-01, 3.70016664e-01, 3.70016664e-01, 1.17689319e-01,
          1.55133143e-01, 3.70016664e-01, 3.70016664e-01, 3.70016664e-01,
          3.70016664e-01, 3.70016664e-01, 3.95580381e-01, 3.95580381e-01,
          3.95580381e-01, 2.04760447e-01, 3.56099218e-01, 3.95580381e-01,
          3.95580381e-01, 1.24334216e-01, 1.71570629e-01, 1.98553294e-01,
          4.56366599e-01, 4.56366599e-01, 1.98053971e-01, 1.68586269e-01,
          1.97278187e-01, 4.56366599e-01, 4.56366599e-01, 1.27949074e-01,
          3.40790302e-01, 1.23887219e-01, 3.91945243e-01, 3.91945243e-01,
          3.91945243e-01, 3.64548750e-02, 3.08486670e-01, 3.91945243e-01,
          3.91945243e-01, 3.55727047e-01, 3.55727047e-01, 1.38935938e-01,
          3.36377859e-01, 3.55727047e-01, 3.55727047e-01, 3.30485195e-01,
          3.49375933e-01, 3.55727047e-01, 4.01349038e-01, 4.01349038e-01,
          4.01349038e-01, 6.81897178e-02, 4.01349038e-01, 4.01349038e-01,
          4.01349038e-01, 1.36406720e-01, 7.90426061e-02, 3.68671387e-01,
          3.60779166e-01, 3.84521097e-01, 2.66362071e-01, 3.84521097e-01,
          1.96193144e-01, 3.84521097e-01, 3.84521097e-01, 1.70914769e-01,
          8.78464896e-03, 1.38634816e-01, 5.53608179e-01, 5.53608179e-01,
          5.53608179e-01, 5.15047498e-02, 7.82053079e-03, 7.18661025e-02,
          2.18746707e-01, 3.44481692e-02, 9.22353417e-02, 1.11112334e-01,
          4.39200014e-01, 6.12990022e-01, 6.12990022e-01, 1.01058684e-01,
          1.00137003e-01, 8.47884119e-02, 1.41185507e-01, 4.28280205e-01,
          4.28280205e-01, 4.28280205e-01, 4.28280205e-01, 4.28280205e-01,
          2.12045595e-01, 1.04142144e-01, 5.34769073e-02, 3.53700906e-01,
          3.58059466e-01, 3.58059466e-01, 3.58059466e-01, 3.58059466e-01,
          3.58059466e-01, 3.58059466e-01, 2.62746185e-01, 1.81778163e-01 ]
      - [ 3.81438076e-01, 3.81438076e-01, 3.22658598e-01, 3.81438076e-01,
          1.38241544e-01, 0., 3.81438076e-01, 3.81438076e-01,
          3.81438076e-01, 3.73665422e-01, 3.73665422e-01, 3.73665422e-01,
          0., 3.53195518e-01, 2.53662318e-01, 3.30221206e-01,
          3.73665422e-01, 3.73665422e-01, 3.69180024e-01, 3.69180024e-01,
          3.69180024e-01, 2.86282271e-01, 2.30493829e-01, 2.08478644e-01,
          3.69180024e-01, 3.69180024e-01, 3.69180024e-01, 3.63332838e-01,
          3.63332838e-01, 3.63332838e-01, 3.63332838e-01, 1.54140964e-01,
          2.20307380e-01, 3.63332838e-01, 3.63332838e-01, 3.63332838e-01,
          3.50994915e-01, 3.50994915e-01, 3.50994915e-01, 3.50994915e-01,
          3.50994915e-01, 1.04469158e-01, 3.50994915e-01, 3.50994915e-01,
          3.50994915e-01, 3.94360274e-01, 3.94360274e-01, 3.94360274e-01,
          0., 3.26041996e-01, 2.93343484e-01, 3.94360274e-01,
          3.87778401e-01, 1.76788658e-01, 2.69558311e-01, 4.23787653e-01,
          4.23787653e-01, 1.72568291e-01, 2.80351669e-01, 2.59816706e-01,
          4.23787653e-01, 4.23787653e-01, 1.69821814e-01, 3.61773759e-01,
          3.61773759e-01, 3.61773759e-01, 3.61773759e-01, 2.76396811e-01,
          1.64307535e-01, 3.61773759e-01, 3.61773759e-01, 3.28195155e-01,
          3.57326239e-01, 3.57326239e-01, 3.57326239e-01, 3.57326239e-01,
          3.57326239e-01, 2.22951934e-01, 2.30104730e-01, 3.57326239e-01,
          3.57326239e-01, 3.32778692e-01, 3.32778692e-01, 3.32778692e-01,
          3.32778692e-01, 3.32778692e-01, 3.32778692e-01, 3.32778692e-01,
          3.32778692e-01, 3.32778692e-01, 3.41825187e-01, 3.41825187e-01,
          3.41825187e-01, 3.41825187e-01, 3.41825187e-01, 2.48654500e-01,
          3.41825187e-01, 3.41825187e-01, 3.41825187e-01, 3.45555454e-01,
          3.45555454e-01, 3.45555454e-01, 3.45555454e-01, 3.12262952e-01,
          3.45555454e-01, 3.45555454e-01, 3.45555454e-01, 2.51354843e-01,
          7.93095753e-02, 2.25713804e-01, 5.13867795e-01, 5.13867795e-01,
          5.13867795e-01, 1.60330161e-01, 8.65998641e-02, 2.76134521e-01,
          1.89724222e-01, 2.09250242e-01, 1.79724276e-01, 3.35018307e-01,
          4.33137178e-01, 4.33137178e-01, 4.33137178e-01, 4.33137178e-01,
          1.92294180e-01, 1.41213924e-01, 2.93314099e-01, 1.49642617e-01,
          3.57334763e-01, 4.22895283e-01, 4.22895283e-01, 4.14880067e-01,
          1.50376782e-01, 2.80014247e-01, 3.58934373e-01, 4.37941700e-01,
          1.60452753e-01, 4.77971472e-02, 1.95743680e-01, 4.76850003e-01,
          4.76850003e-01, 4.48953271e-01, 1.46892890e-01, 2.43291214e-01 ]
      - [ 3.75769138e-01, 3.75769138e-01, 3.75769138e-01, 3.94091103e-03,
          3.75769138e-01, 3.75769138e-01, 3.75769138e-01, 8.83928984e-02,
          3.75769138e-01, 4.02957588e-01, 4.02957588e-01, 2.69029319e-01,
          7.51057640e-02, 4.02957588e-01, 4.02957588e-01, 3.02210033e-01,
          1.21457569e-01, 4.02957588e-01, 4.16937411e-01, 1.22353770e-01,
          2.56796688e-01, 4.16937411e-01, 4.16937411e-01, 6.89944923e-02,
          2.02424809e-01, 4.16937411e-01, 4.16937411e-01, 9.21139866e-02,
          9.99060869e-02, 1.88370585e-01, 5.42996705e-01, 2.23474711e-01,
          6.44834898e-03, 7.81600401e-02, 5.42996705e-01, 5.42996705e-01,
          3.71122986e-01, 3.71122986e-01, 3.71122986e-01, 8.98711607e-02,
          3.71122986e-01, 3.71122986e-01, 3.71122986e-01, 2.51590401e-01,
          3.13885301e-01, 3.91393930e-01, 3.91393930e-01, 2.59490579e-01,
          5.68499006e-02, 3.91393930e-01, 3.91393930e-01, 3.91393930e-01,
          7.99216554e-02, 3.91393930e-01, 4.16912377e-01, 1.33184075e-01,
          2.69927859e-01, 4.16912377e-01, 4.16912377e-01, 1.13815814e-01,
          1.52323186e-01, 4.16912377e-01, 4.16912377e-01, 1.55365005e-01,
          2.11240873e-01, 3.66851181e-01, 4.13367957e-01, 3.03949505e-01,
          1.29044190e-01, 4.13367957e-01, 4.13367957e-01, 4.13367957e-01,
          2.20380366e-01, 3.47196788e-01, 3.47196788e-01, 3.47196788e-01,
          3.47196788e-01, 3.22713703e-01, 3.47196788e-01, 3.47196788e-01,
          3.47196788e-01, 3.61242712e-01, 1.77492082e-01, 3.61242712e-01,
          3.61242712e-01, 3.61242712e-01, 2.26745561e-01, 3.61242712e-01,
          3.61242712e-01, 3.61242712e-01, 3.65968555e-01, 3.65968555e-01,
          3.37509722e-01, 2.70961672e-01, 3.65968555e-01, 3.65968555e-01,
          3.44616234e-01, 1.43475622e-01, 3.65968555e-01, 3.61575127e-01,
          3.61575127e-01, 2.57253975e-01, 2.66856939e-01, 3.61575127e-01,
          3.61575127e-01, 3.61575127e-01, 3.53803337e-01, 2.83082485e-01,
          1.12319410e-01, 1.78512111e-01, 4.43591833e-01, 4.43591833e-01,
          4.43591833e-01, 1.67585880e-01, 2.42302403e-01, 2.77842283e-01,
          4.43591833e-01, 3.31860095e-01, 9.16854292e-02, 3.87761563e-01,
          3.87761563e-01, 3.87761563e-01, 3.16777676e-01, 3.87761563e-01,
          1.59516662e-01, 3.87761563e-01, 4.19687808e-01, 1.78345248e-01,
          2.34191090e-01, 3.27574879e-01, 4.19687808e-01, 4.19687808e-01,
          4.19687808e-01, 7.16233775e-02, 3.03592384e-01, 2.90954858e-01,
          1.90002769e-01, 1.83040097e-01, 1.63407177e-01, 5.12412429e-01,
          5.12412429e-01, 5.12412429e-01, 1.00804642e-01, 1.26728341e-01 ]
      - [ 3.79570901e-01, 3.79570901e-01, 3.79570901e-01, 2.14121267e-01,
          3.79570901e-01, 2.33430281e-01, 2.12693021e-01, 3.60917836e-01,
          3.79570901e-01, 3.87676954e-01, 2.03062117e-01, 3.50924075e-01,
          3.87676954e-01, 2.78778791e-01, 5.05998731e-02, 3.87676954e-01,
          3.87676954e-01, 3.87676954e-01, 3.89065534e-01, 3.89065534e-01,
          3.89065534e-01, 1.80487305e-01, 2.78928638e-01, 2.38487408e-01,
          3.89065534e-01, 2.68328369e-01, 3.89065534e-01, 3.88824463e-01,
          2.46201113e-01, 3.88824463e-01, 2.51542509e-01, 2.70465732e-01,
          2.07732528e-01, 3.88824463e-01, 3.88824463e-01, 3.88824463e-01,
          3.40776920e-01, 3.40776920e-01, 3.40776920e-01, 3.40776920e-01,
          3.40776920e-01, 2.59930551e-01, 3.40776920e-01, 3.40776920e-01,
          3.40776920e-01, 1.76201165e-01, 2.98695296e-01, 3.80610377e-01,
          3.80610377e-01, 3.80610377e-01, 8.21357071e-02, 3.80610377e-01,
          3.80610377e-01, 3.80610377e-01, 3.32778692e-01, 3.32778692e-01,
          3.32778692e-01, 3.32778692e-01, 3.32778692e-01, 3.32778692e-01,
          3.32778692e-01, 3.32778692e-01, 3.32778692e-01, 3.43063444e-01,
          3.43063444e-01, 3.43063444e-01, 3.43063444e-01, 3.43063444e-01,
          2.34589517e-01, 3.43063444e-01, 3.43063444e-01, 3.43063444e-01,
          3.52869213e-01, 3.52869213e-01, 3.52869213e-01, 3.52869213e-01,
          3.52869213e-01, 1.84673220e-02, 3.52869213e-01, 3.52869213e-01,
          3.52869213e-01, 3.41068894e-01, 3.41068894e-01, 3.41068894e-01,
          3.41068894e-01, 3.41068894e-01, 2.56843179e-01, 3.41068894e-01,
          3.41068894e-01, 3.41068894e-01, 3.35622638e-01, 3.35622638e-01,
          3.35622638e-01, 3.35622638e-01, 3.35622638e-01, 3.09040844e-01,
          3.35622638e-01, 3.35622638e-01, 3.35622638e-01, 3.51872414e-01,
          3.51872414e-01, 3.51872414e-01, 2.48068362e-01, 3.51872414e-01,
          3.51872414e-01, 3.51872414e-01, 2.61241764e-01, 3.51872414e-01,
          1.82394072e-01, 3.26200426e-01, 4.47058409e-01, 4.47058409e-01,
          4.47058409e-01, 1.38317691e-02, 3.27730089e-01, 3.44934225e-01,
          1.72332287e-01, 2.98209190e-01, 2.54861504e-01, 3.48766208e-01,
          2.38959461e-01, 4.56039727e-01, 3.69841188e-01, 3.96029532e-01,
          2.97031909e-01, 2.70185471e-01, 2.78964937e-01, 2.01009944e-01,
          4.00291264e-01, 4.00291264e-01, 4.00291264e-01, 2.98587888e-01,
          3.84369224e-01, 3.32166135e-01, 2.23263666e-01, 3.91254336e-01,
          3.44152123e-01, 3.91254336e-01, 1.97496023e-02, 3.91254336e-01,
          3.91254336e-01, 3.91254336e-01, 1.65247709e-01, 2.90781468e-01 ]
      - [ 4.29258019e-01, 4.29258019e-01, 4.29258019e-01, 2.58747160e-01,
          5.40384054e-02, 2.83423930e-01, 2.17587411e-01, 2.47221753e-01,
          4.29258019e-01, 5.35986066e-01, 2.40985438e-01, 6.71069175e-02,
          1.66497290e-01, 2.01415613e-01, 2.42497802e-01, 2.11387560e-01,
          4.30962145e-01, 5.35986066e-01, 3.77473861e-01, 3.56097758e-01,
          3.77473861e-01, 2.54488498e-01, 2.57063180e-01, 1.61693573e-01,
          3.77473861e-01, 3.77473861e-01, 3.77473861e-01, 3.58723521e-01,
          3.34507495e-01, 3.58723521e-01, 3.58723521e-01, 3.28507394e-01,
          6.71429858e-02, 3.58723521e-01, 3.58723521e-01, 3.58723521e-01,
          3.38415802e-01, 3.38415802e-01, 3.38415802e-01, 3.31788003e-01,
          3.38415802e-01, 3.38415802e-01, 3.38415802e-01, 2.91305423e-01,
          3.38415802e-01, 3.41151088e-01, 3.38534802e-01, 2.82581002e-01,
          3.41151088e-01, 3.41151088e-01, 3.41151088e-01, 3.23880583e-01,
          3.39580029e-01, 3.41151088e-01, 3.16847146e-01, 3.37214112e-01,
          3.37214112e-01, 3.37214112e-01, 3.37214112e-01, 3.16615045e-01,
          3.37214112e-01, 3.37214112e-01, 3.37214112e-01, 2.57572740e-01,
          3.56220573e-01, 3.56220573e-01, 3.56220573e-01, 3.56220573e-01,
          2.04561859e-01, 3.56220573e-01, 3.56220573e-01, 3.56220573e-01,
          1.24812968e-01, 2.74743199e-01, 3.66357774e-01, 3.66357774e-01,
          3.66357774e-01, 3.66357774e-01, 3.66357774e-01, 3.66357774e-01,
          3.16179633e-01, 4.18469869e-02, 3.92309994e-01, 3.92309994e-01,
          3.92309994e-01, 3.92309994e-01, 2.83750921e-01, 3.64908546e-01,
          2.10480139e-01, 3.47457021e-01, 3.41799468e-01, 3.41799468e-01,
          3.41799468e-01, 3.41799468e-01, 3.41799468e-01, 2.97935337e-01,
          3.00052434e-01, 3.41799468e-01, 3.41799468e-01, 3.76201034e-01,
          3.65913033e-01, 1.58106655e-01, 2.16064855e-01, 3.76201034e-01,
          3.76201034e-01, 3.76201034e-01, 2.88151801e-01, 3.76201034e-01,
          1.45855442e-01, 4.24868651e-02, 1.83113769e-01, 3.91518384e-01,
          4.00407702e-01, 4.00407702e-01, 4.00407702e-01, 4.00407702e-01,
          3.80523771e-01, 5.45821339e-02, 1.47186115e-01, 5.89868128e-01,
          5.89868128e-01, 3.52981329e-01, 4.83703129e-02, 2.35787004e-01,
          7.02600926e-02, 2.93446392e-01, 1.77536279e-01, 1.22007698e-01,
          4.94097799e-01, 4.94097799e-01, 4.94097799e-01, 3.51293981e-01,
          1.42575204e-01, 7.28087798e-02, 2.59279549e-01, 2.02203795e-01,
          2.48709787e-02, 4.55948636e-02, 1.14250377e-01, 5.22522330e-01,
          5.22522330e-01, 5.22522330e-01, 1.34396240e-01, 3.17795128e-01 ]
      - [ 6.30491376e-01, 3.72285396e-01, 1.94955483e-01, 0., 0., 0.,
          1.09965824e-01, 9.98494029e-02, 6.30491376e-01, 6.46449625e-01,
          0., 0., 0., 0., 0., 3.30142677e-01, 2.06980973e-01,
          6.50974929e-01, 3.88486534e-01, 3.88486534e-01, 3.88486534e-01,
          3.88486534e-01, 2.25652650e-01, 5.87524474e-02, 1.90308228e-01,
          3.88486534e-01, 3.88486534e-01, 3.83827567e-01, 3.83827567e-01,
          1.25609711e-01, 3.64725858e-01, 3.37941587e-01, 4.17957306e-02,
          3.76984030e-01, 3.83827567e-01, 3.83827567e-01, 3.38445812e-01,
          3.38445812e-01, 3.38445812e-01, 2.83290952e-01, 3.38445812e-01,
          3.38445812e-01, 3.38445812e-01, 3.38445812e-01, 3.38445812e-01,
          3.75063360e-01, 3.75063360e-01, 3.75063360e-01, 2.99497247e-01,
          1.25209898e-01, 2.16429174e-01, 3.75063360e-01, 3.75063360e-01,
          3.75063360e-01, 3.49399954e-01, 3.49399954e-01, 3.49399954e-01,
          3.49399954e-01, 3.49399954e-01, 1.51917860e-01, 3.49399954e-01,
          3.44771922e-01, 3.49399954e-01, 3.40298682e-01, 3.40298682e-01,
          3.40298682e-01, 3.40298682e-01, 3.40298682e-01, 2.64904618e-01,
          3.40298682e-01, 3.40298682e-01, 3.40298682e-01, 3.00091058e-01,
          3.38103026e-01, 3.38103026e-01, 3.38103026e-01, 3.26146543e-01,
          3.38103026e-01, 3.38103026e-01, 3.38103026e-01, 3.38103026e-01,
          3.32778692e-01, 3.32778692e-01, 3.32778692e-01, 3.32778692e-01,
          3.32778692e-01, 3.32778692e-01, 3.32778692e-01, 3.32778692e-01,
          3.32778692e-01, 3.58832359e-01, 3.58832359e-01, 3.58832359e-01,
          3.45163226e-01, 2.75804222e-01, 1.69249207e-01, 3.58832359e-01,
          3.58832359e-01, 3.58832359e-01, 3.08923662e-01, 3.70641887e-01,
          3.70641887e-01, 3.37552458e-01, 1.56739116e-01, 3.70641887e-01,
          3.70641887e-01, 3.70641887e-01, 2.74731487e-01, 1.30956993e-01,
          1.40551731e-01, 4.34127063e-01, 4.34127063e-01, 4.34127063e-01,
          1.82839915e-01, 7.46513680e-02, 4.34127063e-01, 4.07296419e-01,
          2.09783286e-01, 2.54933000e-01, 3.59724015e-01, 3.59724015e-01,
          3.59724015e-01, 3.59724015e-01, 3.33163649e-01, 3.59724015e-01,
          3.59724015e-01, 3.57139587e-01, 2.62104839e-01, 3.57139587e-01,
          3.57139587e-01, 3.57139587e-01, 3.57139587e-01, 1.86793983e-01,
          3.57139587e-01, 3.57139587e-01, 3.83420289e-01, 3.83420289e-01,
          2.45487377e-01, 2.85811484e-01, 3.83420289e-01, 3.83420289e-01,
          3.83420289e-01, 2.04055399e-01, 2.78429627e-01 ]
      - [ 4.21488911e-01, 4.21488911e-01, 2.80390143e-01, 9.67328101e-02,
          3.84761423e-01, 4.21488911e-01, 1.67837173e-01, 1.44883707e-01,
          4.21488911e-01, 3.65921527e-01, 3.65921527e-01, 2.04466179e-01,
          1.90361351e-01, 3.65921527e-01, 3.38982344e-01, 3.65921527e-01,
          3.65921527e-01, 3.65921527e-01, 2.23997787e-01, 5.15994430e-02,
          0., 0., 3.18878591e-01, 1.10069782e-01, 5.25394022e-01,
          5.25394022e-01, 5.25394022e-01, 7.04615593e-01, 0., 0., 0., 0.,
          0., 0., 0., 7.04615593e-01, 3.34147066e-01, 3.34147066e-01,
          3.34147066e-01, 3.21601063e-01, 3.34147066e-01, 3.34147066e-01,
          3.34147066e-01, 3.34147066e-01, 3.34147066e-01, 3.32778692e-01,
          3.32778692e-01, 3.32778692e-01, 3.32778692e-01, 3.32778692e-01,
          3.32778692e-01, 3.32778692e-01, 3.32778692e-01, 3.32778692e-01,
          4.26174462e-01, 4.26174462e-01, 2.27980226e-01, 1.23113483e-01,
          1.78814620e-01, 2.76232183e-01, 4.26174462e-01, 3.06322187e-01,
          4.26174462e-01, 3.59728903e-01, 3.59728903e-01, 2.84545928e-01,
          9.80078354e-02, 3.59728903e-01, 3.59728903e-01, 3.59728903e-01,
          3.59728903e-01, 3.59728903e-01, 3.39577407e-01, 3.39577407e-01,
          3.39577407e-01, 3.33768159e-01, 3.39577407e-01, 3.39577407e-01,
          3.39577407e-01, 3.39577407e-01, 2.79314041e-01, 3.77632618e-01,
          3.77632618e-01, 3.77632618e-01, 1.38894036e-01, 3.77632618e-01,
          3.77632618e-01, 3.77632618e-01, 2.13645294e-01, 2.75050938e-01,
          3.92370254e-01, 3.92370254e-01, 3.92370254e-01, 7.12347403e-02,
          3.92370254e-01, 3.92370254e-01, 3.92370254e-01, 1.42916098e-01,
          2.16458723e-01, 3.96329999e-01, 3.96329999e-01, 1.54988140e-01,
          2.09363654e-01, 3.96329999e-01, 3.96329999e-01, 3.96329999e-01,
          2.30161101e-01, 2.99707592e-01, 3.70049357e-01, 3.70049357e-01,
          3.70049357e-01, 3.70049357e-01, 3.70049357e-01, 3.70049357e-01,
          3.70049357e-01, 4.89508510e-02, 1.88018605e-01, 4.04037744e-01,
          4.23658818e-01, 2.76538938e-01, 1.59820002e-02, 4.27965552e-01,
          4.27965552e-01, 4.27965552e-01, 4.95552234e-02, 1.56022981e-01,
          1.61478203e-02, 1.02823846e-01, 1.53877214e-01, 0.,
          5.97258627e-01, 5.97258627e-01, 4.95623529e-01, 2.11213436e-02,
          2.27567827e-04, 0., 0., 0., 0., 8.32535863e-01, 5.46421170e-01,
          0., 0., 0. ]
      - [ 4.03661549e-01, 4.03661549e-01, 4.03661549e-01, 2.36893650e-02,
          1.49645492e-01, 4.03661549e-01, 4.03661549e-01, 7.79371932e-02,
          3.90160441e-01, 3.35549623e-01, 3.35549623e-01, 3.14172387e-01,
          3.35549623e-01, 3.31343144e-01, 3.35549623e-01, 3.35549623e-01,
          3.35549623e-01, 3.35549623e-01, 3.14755201e-01, 2.82362193e-01,
          2.07927182e-01, 4.09191817e-01, 2.59271920e-01, 1.92108527e-01,
          4.09191817e-01, 4.09191817e-01, 4.09191817e-01, 0., 0., 0., 0.,
          0., 0., 0., 0., 0., 3.50350380e-01, 3.50350380e-01,
          3.50350380e-01, 3.50350380e-01, 3.50350380e-01, 3.50350380e-01,
          3.50350380e-01, 1.20567560e-01, 3.50350380e-01, 3.43702704e-01,
          3.43702704e-01, 3.43702704e-01, 3.43702704e-01, 3.43702704e-01,
          3.43702704e-01, 3.43702704e-01, 3.07147950e-01, 2.74417996e-01,
          3.45310718e-01, 3.45310718e-01, 3.45310718e-01, 2.06480086e-01,
          3.45310718e-01, 3.45310718e-01, 3.45310718e-01, 3.45310718e-01,
          3.45310718e-01, 3.72439086e-01, 3.72439086e-01, 1.45241961e-01,
          6.48685917e-02, 3.72439086e-01, 3.72439086e-01, 3.72439086e-01,
          3.72439086e-01, 3.72439086e-01, 3.64293963e-01, 3.64293963e-01,
          3.64293963e-01, 2.49328122e-01, 3.64293963e-01, 3.64293963e-01,
          3.19044322e-01, 1.90121219e-01, 3.64293963e-01, 3.68770391e-01,
          3.68770391e-01, 3.68770391e-01, 8.30591023e-02, 3.68770391e-01,
          3.68770391e-01, 3.68770391e-01, 1.93586752e-01, 3.68770391e-01,
          4.01434898e-01, 4.01434898e-01, 3.11046869e-01, 1.00385360e-01,
          4.01434898e-01, 4.01434898e-01, 3.71691585e-01, 1.17672145e-01,
          3.04238409e-01, 4.13745224e-01, 3.37246835e-01, 1.15341179e-01,
          1.99865222e-01, 4.13745224e-01, 4.13745224e-01, 4.13745224e-01,
          2.90982664e-01, 2.43865430e-01, 2.05153868e-01, 4.12754059e-01,
          3.98847550e-01, 4.12754059e-01, 4.12754059e-01, 4.12754059e-01,
          2.86842555e-01, 1.35526642e-01, 1.12246871e-01, 1.02230549e-01,
          2.21863553e-01, 3.21665198e-01, 1.13778777e-01, 5.40994942e-01,
          5.40994942e-01, 4.72286463e-01, 6.92641363e-02, 7.28396252e-02,
          0., 4.89504114e-02, 1.43553972e-01, 0., 6.42546654e-01,
          6.42546654e-01, 3.80589664e-01, 0., 0., 0., 0., 0., 0., 0., 0.,
          0., 0., 0. ]
      - [ 3.92466486e-01, 3.92466486e-01, 3.92466486e-01, 3.63549352e-01,
          0., 7.81063065e-02, 3.80823106e-01, 3.10909331e-01,
          3.92466486e-01, 4.00206655e-01, 4.00206655e-01, 3.02483082e-01,
          2.91218936e-01, 0., 1.37370497e-01, 4.00206655e-01,
          4.00206655e-01, 4.00206655e-01, 7.04615593e-01, 0., 0., 0., 0.,
          0., 0., 0., 7.04615593e-01, 6.73893869e-01, 0., 0., 0., 0., 0.,
          4.81089540e-02, 2.87562311e-01, 6.73893869e-01, 3.69045824e-01,
          3.69045824e-01, 3.69045824e-01, 2.79979497e-01, 2.90533662e-01,
          3.69045824e-01, 3.69045824e-01, 1.27850592e-01, 3.69045824e-01,
          3.55183691e-01, 3.26513797e-01, 2.84214616e-01, 2.28318498e-01,
          3.55183691e-01, 3.55183691e-01, 3.55183691e-01, 3.55183691e-01,
          3.55183691e-01, 4.28229302e-01, 3.61069828e-01, 1.45591438e-01,
          1.46017447e-01, 4.28229302e-01, 4.28229302e-01, 2.70074368e-01,
          1.27950445e-01, 4.28229302e-01, 3.64792913e-01, 2.02834815e-01,
          2.71028548e-01, 2.88641393e-01, 3.64792913e-01, 3.64792913e-01,
          3.64792913e-01, 3.64792913e-01, 3.64792913e-01, 3.66372108e-01,
          3.66372108e-01, 3.66372108e-01, 3.66372108e-01, 3.66372108e-01,
          3.66372108e-01, 2.25263610e-01, 7.74359852e-02, 3.66372108e-01,
          4.31165665e-01, 2.38566890e-01, 1.47515535e-01, 4.31165665e-01,
          4.31165665e-01, 4.31165665e-01, 2.00185508e-01, 1.70488283e-01,
          3.22896600e-01, 4.74537462e-01, 2.94537067e-01, 1.49475008e-01,
          3.11016172e-01, 4.74537462e-01, 4.74537462e-01, 1.84268042e-01,
          8.45074356e-02, 2.69778818e-01, 2.42390960e-01, 2.07796425e-01,
          2.16151610e-01, 3.90781373e-01, 3.90781373e-01, 3.90781373e-01,
          3.90781373e-01, 2.89639980e-01, 3.90781373e-01, 0.,
          2.12222268e-03, 5.61229996e-02, 4.74771172e-01, 7.82465398e-01,
          3.89071465e-01, 0., 0., 0., 0., 0., 0., 4.33805496e-01,
          7.10206747e-01, 5.48023582e-01, 0., 0., 0., 0., 0., 0.,
          1.38588831e-01, 9.09787476e-01, 3.79476875e-01, 0., 0., 0., 0.,
          0., 0., 0., 9.83620763e-01, 0., 0., 0., 0. ]
      - [ 4.03009564e-01, 4.03009564e-01, 3.70867729e-01, 1.01217173e-01,
          3.23221415e-01, 2.92853385e-01, 2.94783980e-01, 2.89487839e-01,
          4.03009564e-01, 4.19680357e-01, 1.93699211e-01, 5.20707630e-02,
          5.48661575e-02, 2.68157780e-01, 4.19680357e-01, 4.19680357e-01,
          4.19680357e-01, 4.19680357e-01, 5.04625559e-01, 5.04625559e-01,
          3.50419164e-01, 1.19112566e-01, 2.05591768e-01, 3.90851796e-01,
          2.46374503e-01, 1.62828103e-01, 2.57756412e-01, 3.45746934e-01,
          3.45746934e-01, 3.45746934e-01, 3.45746934e-01, 3.43184114e-01,
          2.04899058e-01, 3.45746934e-01, 3.45746934e-01, 3.45746934e-01,
          3.32778692e-01, 3.32778692e-01, 3.32778692e-01, 3.32778692e-01,
          3.32778692e-01, 3.32778692e-01, 3.32778692e-01, 3.32778692e-01,
          3.32778692e-01, 3.90834898e-01, 3.90834898e-01, 1.76161379e-01,
          1.34936452e-01, 3.90834898e-01, 3.90834898e-01, 3.41867357e-01,
          2.57336080e-01, 3.90834898e-01, 4.00058120e-01, 4.00058120e-01,
          3.79136562e-01, 8.88550207e-02, 4.00058120e-01, 4.00058120e-01,
          3.51363987e-01, 1.31202668e-01, 2.52005845e-01, 2.90220916e-01,
          3.68903458e-01, 3.68903458e-01, 3.23640198e-01, 2.93238252e-01,
          3.68903458e-01, 3.68903458e-01, 3.68903458e-01, 2.02251837e-01,
          2.62429655e-01, 2.66878307e-01, 4.45871562e-01, 4.64963645e-01,
          4.64963645e-01, 2.22186327e-01, 1.51152924e-01, 1.92608297e-01,
          3.38772416e-01, 4.60084349e-01, 1.74214080e-01, 2.24706918e-01,
          3.82211447e-01, 4.60084349e-01, 4.60084349e-01, 2.04931378e-01,
          1.47426128e-01, 2.64028311e-01, 1.23554513e-01, 4.01362747e-01,
          4.92946446e-01, 1.39129907e-01, 4.92946446e-01, 4.92946446e-01,
          1.95418432e-01, 9.05945525e-02, 1.54846728e-01, 1.42357707e-01,
          3.85547131e-01, 3.85547131e-01, 1.92982361e-01, 3.39069307e-01,
          3.85300785e-01, 3.85547131e-01, 3.85547131e-01, 2.83952922e-01,
          0., 0., 0., 0., 9.95024860e-01, 0., 0., 0., 0., 0., 0., 0., 0.,
          9.95024860e-01, 0., 0., 0., 0., 3.13656665e-02, 4.98260975e-01,
          4.98260975e-01, 4.98260975e-01, 4.98260975e-01, 0., 0., 0.,
          3.13656665e-02, 7.13463500e-02, 2.16643512e-01, 4.09024477e-01,
          4.09024477e-01, 4.09024477e-01, 4.09024477e-01, 4.09024477e-01,
          2.22575530e-01, 2.40508124e-01 ]
      - [ 4.37395245e-01, 4.37395245e-01, 3.34639609e-01, 5.89233562e-02,
          4.78780568e-02, 4.37395245e-01, 1.97713181e-01, 2.71171391e-01,
          4.37395245e-01, 4.38357651e-01, 4.03143138e-01, 3.29296291e-01,
          1.55614927e-01, 5.43801486e-02, 2.84277290e-01, 2.00503707e-01,
          4.38357651e-01, 4.38357651e-01, 3.96434426e-01, 3.96434426e-01,
          3.96434426e-01, 1.47103906e-01, 1.69768319e-01, 3.43426079e-01,
          2.04538628e-01, 3.96434426e-01, 3.96434426e-01, 4.30617541e-01,
          3.09834033e-01, 2.27020353e-01, 2.71478236e-01, 1.17194511e-01,
          3.13211650e-01, 3.26086342e-01, 4.30617541e-01, 4.30617541e-01,
          3.95719528e-01, 3.95719528e-01, 3.46396416e-01, 1.38537988e-01,
          3.93359065e-01, 3.95719528e-01, 3.10205787e-01, 1.39688060e-01,
          3.41481984e-01, 3.32778692e-01, 3.32778692e-01, 3.32778692e-01,
          3.32778692e-01, 3.32778692e-01, 3.32778692e-01, 3.32778692e-01,
          3.32778692e-01, 3.32778692e-01, 3.45017016e-01, 3.45017016e-01,
          3.45017016e-01, 3.45017016e-01, 3.45017016e-01, 3.45017016e-01,
          3.45017016e-01, 3.45017016e-01, 2.10378006e-01, 3.51978391e-01,
          2.10049048e-01, 3.51978391e-01, 3.51978391e-01, 2.91789383e-01,
          3.51978391e-01, 3.51978391e-01, 3.51978391e-01, 3.51978391e-01,
          3.41014534e-01, 3.41014534e-01, 3.41014534e-01, 2.57420897e-01,
          3.41014534e-01, 3.41014534e-01, 3.41014534e-01, 3.41014534e-01,
          3.41014534e-01, 3.32778692e-01, 3.32778692e-01, 3.32778692e-01,
          3.32778692e-01, 3.32778692e-01, 3.32778692e-01, 3.32778692e-01,
          3.32778692e-01, 3.32778692e-01, 3.39376748e-01, 3.39376748e-01,
          3.14905882e-01, 3.03422868e-01, 3.38110298e-01, 3.39376748e-01,
          3.39376748e-01, 3.39376748e-01, 3.39376748e-01, 3.46051753e-01,
          3.46051753e-01, 3.46051753e-01, 3.46051753e-01, 2.84434825e-01,
          3.46051753e-01, 3.46051753e-01, 3.46051753e-01, 2.78166652e-01,
          3.53908807e-01, 2.10823104e-01, 3.95316452e-01, 3.95316452e-01,
          3.95316452e-01, 3.95316452e-01, 1.55729726e-01, 1.43964380e-01,
          3.95316452e-01, 4.01795536e-01, 2.81156391e-01, 1.55315205e-01,
          4.01795536e-01, 4.01795536e-01, 4.01795536e-01, 1.85485572e-01,
          2.26299122e-01, 4.01795536e-01, 3.58255088e-01, 3.32995355e-01,
          2.53489137e-01, 3.58255088e-01, 3.58255088e-01, 3.58255088e-01,
          3.35399836e-01, 2.58942932e-01, 3.58255088e-01, 4.24099654e-01,
          3.70982260e-01, 2.16099858e-01, 1.57691702e-01, 4.24099654e-01,
          4.24099654e-01, 4.24099654e-01, 1.45616934e-01, 2.14297533e-01 ]
      - [ 4.02232021e-01, 4.02232021e-01, 3.89398009e-01, 1.35589898e-01,
          4.02232021e-01, 2.34240368e-01, 1.22540966e-01, 3.30028772e-01,
          4.02232021e-01, 3.98066252e-01, 3.76648128e-01, 2.05306768e-01,
          2.71222740e-01, 3.98066252e-01, 2.38114730e-01, 2.18909219e-01,
          3.98066252e-01, 3.98066252e-01, 4.12804902e-01, 4.12804902e-01,
          2.53120601e-01, 1.56523541e-01, 4.12804902e-01, 4.12804902e-01,
          1.59271464e-01, 1.72915220e-01, 4.12804902e-01, 4.03107315e-01,
          6.75016791e-02, 7.14062974e-02, 3.49690467e-01, 4.03107315e-01,
          2.27061003e-01, 4.03107315e-01, 4.03107315e-01, 4.03107315e-01,
          3.39697063e-01, 3.39697063e-01, 3.39697063e-01, 2.71022409e-01,
          3.39697063e-01, 3.39697063e-01, 3.39697063e-01, 3.39697063e-01,
          3.39697063e-01, 3.34362328e-01, 3.34362328e-01, 3.34362328e-01,
          3.34362328e-01, 3.34362328e-01, 3.34362328e-01, 3.19803059e-01,
          3.34362328e-01, 3.34362328e-01, 3.37240905e-01, 3.37240905e-01,
          3.37240905e-01, 2.94583112e-01, 3.37240905e-01, 3.37240905e-01,
          3.37240905e-01, 3.37240905e-01, 3.37240905e-01, 3.56480241e-01,
          3.65010053e-01, 3.65010053e-01, 3.65010053e-01, 3.11680466e-01,
          1.80777922e-01, 3.65010053e-01, 3.65010053e-01, 2.70717770e-01,
          3.58303100e-01, 3.09598178e-01, 3.58303100e-01, 3.58303100e-01,
          3.58303100e-01, 1.09932587e-01, 3.43798548e-01, 3.58303100e-01,
          3.58303100e-01, 3.94817024e-01, 3.94817024e-01, 3.04294884e-01,
          2.03756586e-01, 3.94817024e-01, 3.94817024e-01, 3.03753555e-01,
          2.47446969e-01, 2.91419625e-01, 3.32778692e-01, 3.32778692e-01,
          3.32778692e-01, 3.32778692e-01, 3.32778692e-01, 3.32778692e-01,
          3.32778692e-01, 3.32778692e-01, 3.32778692e-01, 3.65012318e-01,
          3.65012318e-01, 3.43300521e-01, 3.65012318e-01, 2.28193447e-01,
          3.65012318e-01, 3.65012318e-01, 3.65012318e-01, 1.64382949e-01,
          1.89897224e-01, 2.03774765e-01, 4.54131514e-01, 5.42155206e-01,
          5.42155206e-01, 2.30794564e-01, 5.25862053e-02, 5.67523502e-02,
          2.52286285e-01, 2.44069353e-01, 1.09063350e-01, 2.25859821e-01,
          2.57003427e-01, 5.78718722e-01, 5.78718722e-01, 3.11628282e-01,
          1.23661146e-01, 1.53160438e-01, 2.55581200e-01, 2.05759227e-01,
          3.87143105e-01, 4.56121922e-01, 4.56121922e-01, 4.56121922e-01,
          2.08174422e-01, 1.72934800e-01, 2.01298043e-01, 1.65489346e-01,
          2.87962556e-01, 6.66799918e-02, 4.44728822e-01, 4.44728822e-01,
          4.44728822e-01, 4.44728822e-01, 2.49363646e-01, 1.65786490e-01 ]
      - [ 3.73833597e-01, 3.73833597e-01, 3.73833597e-01, 0.,
          3.73833597e-01, 1.34180665e-01, 3.73833597e-01, 3.73833597e-01,
          3.73833597e-01, 4.56930608e-01, 1.56101853e-01, 3.65750074e-01,
          0., 7.92889223e-02, 1.05126180e-01, 4.40000087e-01,
          4.56930608e-01, 4.56930608e-01, 3.69433641e-01, 3.69433641e-01,
          3.69433641e-01, 3.69433641e-01, 3.69433641e-01, 3.71695161e-02,
          1.98894337e-01, 3.69433641e-01, 3.69433641e-01, 3.99882585e-01,
          1.45817846e-01, 2.22563758e-01, 3.99882585e-01, 3.99882585e-01,
          8.70945081e-02, 3.43644738e-01, 3.99882585e-01, 3.99882585e-01,
          3.53532881e-01, 3.53532881e-01, 3.53532881e-01, 5.97307719e-02,
          3.53532881e-01, 3.53532881e-01, 3.53532881e-01, 3.53532881e-01,
          3.43513638e-01, 3.56484979e-01, 2.26065174e-01, 3.56484979e-01,
          3.56484979e-01, 3.56484979e-01, 2.36140221e-01, 3.56484979e-01,
          3.56484979e-01, 3.56484979e-01, 2.74594039e-01, 3.51687819e-01,
          3.61416161e-01, 3.61416161e-01, 3.61416161e-01, 1.16503507e-01,
          3.61416161e-01, 3.61416161e-01, 3.61416161e-01, 2.56066173e-01,
          3.66559565e-01, 3.66559565e-01, 3.66559565e-01, 2.71927893e-01,
          2.25005999e-01, 3.66559565e-01, 3.66559565e-01, 3.66559565e-01,
          1.64955005e-01, 3.96161616e-01, 3.96161616e-01, 1.63903639e-01,
          3.96161616e-01, 3.96161616e-01, 3.96161616e-01, 3.96161616e-01,
          1.74247678e-02, 3.84291649e-01, 1.57331258e-01, 3.90712261e-01,
          3.90712261e-01, 3.90712261e-01, 1.34413511e-01, 2.05708817e-01,
          3.90712261e-01, 3.90712261e-01, 3.55916351e-01, 3.55916351e-01,
          3.55916351e-01, 3.55916351e-01, 3.55916351e-01, 2.58838236e-01,
          2.06667677e-01, 3.55916351e-01, 3.55916351e-01, 3.59456688e-01,
          3.59456688e-01, 3.59456688e-01, 2.07276687e-01, 3.59456688e-01,
          3.59456688e-01, 3.59456688e-01, 2.87236631e-01, 3.09330881e-01,
          3.72608513e-01, 4.12343070e-02, 1.23702906e-01, 1.01198770e-01,
          4.64957476e-01, 2.04649240e-01, 4.64957476e-01, 4.64957476e-01,
          3.72608513e-01, 1.27321959e-01, 6.67122006e-02, 5.36493003e-01,
          5.36493003e-01, 5.36493003e-01, 0., 4.53572758e-02,
          1.78000242e-01, 2.77065724e-01, 2.11864591e-01, 1.78854823e-01,
          3.65329146e-01, 4.28746194e-01, 4.28746194e-01, 4.21503901e-01,
          1.72208592e-01, 1.99583516e-01, 4.13006663e-01, 2.05706015e-01,
          3.26902211e-01, 4.54552062e-02, 2.63690371e-02, 4.86858755e-01,
          4.86858755e-01, 4.86858755e-01, 1.07178800e-01, 3.47295702e-01 ]
      - [ 4.09489542e-01, 4.09489542e-01, 1.50525913e-01, 8.23560432e-02,
          3.84944171e-01, 3.52588326e-01, 1.52451873e-01, 4.09489542e-01,
          4.09489542e-01, 4.27573174e-01, 2.42599383e-01, 3.34630013e-02,
          1.20819032e-01, 4.27573174e-01, 8.40433538e-02, 4.27573174e-01,
          4.27573174e-01, 4.27573174e-01, 3.85819495e-01, 3.85819495e-01,
          3.85819495e-01, 3.85819495e-01, 3.08778048e-01, 6.02243021e-02,
          2.13747978e-01, 3.27418864e-01, 3.85819495e-01, 3.78391594e-01,
          3.78391594e-01, 3.10171396e-01, 3.78391594e-01, 2.88709044e-01,
          4.16744575e-02, 3.14678729e-01, 3.78391594e-01, 3.78391594e-01,
          3.52077067e-01, 3.52077067e-01, 3.52077067e-01, 6.94002882e-02,
          3.52077067e-01, 3.52077067e-01, 3.52077067e-01, 3.52077067e-01,
          3.52077067e-01, 3.34358901e-01, 3.34358901e-01, 3.34358901e-01,
          3.22217196e-01, 3.34358901e-01, 3.32060665e-01, 3.34358901e-01,
          3.34358901e-01, 3.34358901e-01, 3.26978117e-01, 3.53984743e-01,
          3.53984743e-01, 3.53984743e-01, 3.53984743e-01, 1.11410566e-01,
          3.53984743e-01, 3.53984743e-01, 3.53984743e-01, 2.16187790e-01,
          3.18829775e-01, 3.70924473e-01, 3.70924473e-01, 3.70924473e-01,
          1.49648681e-01, 3.70924473e-01, 3.70924473e-01, 3.70924473e-01,
          3.39263171e-01, 3.39263171e-01, 3.39263171e-01, 3.39263171e-01,
          3.39263171e-01, 2.75344044e-01, 3.39263171e-01, 3.39263171e-01,
          3.39263171e-01, 3.32778692e-01, 3.32778692e-01, 3.32778692e-01,
          3.32778692e-01, 3.32778692e-01, 3.32778692e-01, 3.32778692e-01,
          3.32778692e-01, 3.32778692e-01, 3.54270488e-01, 3.13434005e-01,
          3.54270488e-01, 3.54270488e-01, 2.63569862e-01, 2.75145173e-01,
          3.54270488e-01, 3.54270488e-01, 3.54270488e-01, 3.60969394e-01,
          3.60969394e-01, 3.60969394e-01, 2.51809835e-01, 2.85160601e-01,
          3.60969394e-01, 3.60969394e-01, 3.60969394e-01, 2.64339656e-01,
          1.96132526e-01, 5.40209226e-02, 4.45642531e-01, 4.45642531e-01,
          4.45642531e-01, 2.61404634e-01, 1.23519786e-01, 2.76014090e-01,
          4.45642531e-01, 3.97950381e-01, 1.03541046e-01, 3.11891168e-01,
          3.97950381e-01, 3.97950381e-01, 3.97950381e-01, 3.97950381e-01,
          1.66499928e-01, 2.61692315e-01, 2.86124885e-01, 1.92615762e-01,
          3.80994737e-01, 4.33317751e-01, 4.33317751e-01, 3.31289858e-01,
          6.72211722e-02, 2.32339621e-01, 4.33317751e-01, 4.61389214e-01,
          1.99311450e-01, 4.11658399e-02, 7.76520818e-02, 4.61389214e-01,
          4.61389214e-01, 4.38058764e-01, 2.53936499e-01, 2.30049223e-01 ]
      - [ 3.41305703e-01, 3.41305703e-01, 3.41305703e-01, 3.41305703e-01,
          3.12564313e-01, 2.88905442e-01, 3.41305703e-01, 3.41305703e-01,
          3.41305703e-01, 1.95054263e-01, 2.34100193e-01, 5.81618361e-02,
          3.79079551e-01, 2.88416684e-01, 2.14251727e-01, 4.56951708e-01,
          4.56951708e-01, 4.56951708e-01, 0., 0., 0., 0., 0., 0., 0., 0.,
          0., 0., 0., 0., 0., 0., 0., 0., 0., 0., 2.55870640e-01,
          3.81835103e-01, 3.81835103e-01, 2.38771439e-01, 2.09454700e-01,
          3.31751943e-01, 3.81835103e-01, 3.81835103e-01, 3.69568676e-01,
          3.91396850e-01, 3.91396850e-01, 2.14104995e-01, 8.47924426e-02,
          1.54629216e-01, 3.91396850e-01, 3.91396850e-01, 3.91396850e-01,
          3.91396850e-01, 4.44804966e-01, 4.44804966e-01, 1.64832622e-01,
          1.03106767e-01, 3.68033707e-01, 3.64555627e-01, 3.00108552e-01,
          7.60724247e-02, 4.44804966e-01, 3.87715191e-01, 2.98407525e-01,
          1.47455558e-01, 1.72915742e-01, 3.22213054e-01, 3.87715191e-01,
          3.87715191e-01, 3.87715191e-01, 3.87715191e-01, 3.05763274e-01,
          3.50780070e-01, 3.50780070e-01, 3.28178555e-01, 3.50780070e-01,
          3.16569805e-01, 3.50780070e-01, 3.50780070e-01, 2.82583207e-01,
          3.83971602e-01, 3.83971602e-01, 3.00801158e-01, 1.34689510e-01,
          3.83971602e-01, 3.83971602e-01, 3.83971602e-01, 2.96412528e-01,
          2.50020355e-01, 4.18641865e-01, 3.91540557e-01, 2.74080455e-01,
          1.26120225e-01, 4.18641865e-01, 4.18641865e-01, 4.13212389e-01,
          9.38379839e-02, 2.14836121e-01, 4.64289814e-01, 1.66187599e-01,
          1.38057768e-01, 1.59326091e-01, 4.64289814e-01, 4.64289814e-01,
          4.64289814e-01, 1.74139276e-01, 1.75256148e-01, 2.76124418e-01,
          3.89894336e-01, 3.89894336e-01, 3.89894336e-01, 3.89894336e-01,
          3.89894336e-01, 2.20073268e-01, 2.28661641e-01, 2.43009835e-01,
          3.35805237e-01, 2.04368636e-01, 1.91653892e-01, 2.42029026e-01,
          5.11149168e-01, 5.11149168e-01, 4.40774322e-01, 1.22207135e-01,
          1.15284845e-01, 1.39713481e-01, 6.46478087e-02, 5.45938462e-02,
          7.07372427e-02, 6.05475008e-01, 6.05475008e-01, 4.78525341e-01,
          9.19516571e-03, 0., 0., 0., 0., 0., 9.84727681e-01, 0., 0., 0.,
          0. ]
      - [ 5.58584154e-01, 5.58584154e-01, 3.08459431e-01, 0.,
          2.77426988e-01, 2.96055853e-01, 0., 1.11671304e-02,
          3.32419664e-01, 3.88320953e-01, 3.88320953e-01, 1.45657167e-01,
          0., 2.64850140e-01, 3.88320953e-01, 3.88320953e-01,
          3.88320953e-01, 3.88320953e-01, 4.89187330e-01, 0., 0., 0., 0.,
          1.94671497e-01, 4.89187330e-01, 4.89187330e-01, 4.89187330e-01,
          6.99412704e-01, 0., 0., 0., 0., 0., 0., 1.21087000e-01,
          6.99412704e-01, 4.04685885e-01, 4.04685885e-01, 2.64509320e-01,
          2.20120266e-01, 4.04685885e-01, 4.04685885e-01, 3.28528345e-01,
          9.99763384e-02, 3.23311478e-01, 3.85750622e-01, 3.85750622e-01,
          1.40442848e-01, 1.32301793e-01, 3.85750622e-01, 3.85750622e-01,
          3.85750622e-01, 2.57093340e-01, 3.85750622e-01, 4.15452927e-01,
          3.61141086e-01, 1.41545489e-01, 2.04129979e-01, 4.15452927e-01,
          4.15452927e-01, 2.60487884e-01, 2.13223666e-01, 4.15452927e-01,
          3.66330564e-01, 1.44368485e-01, 2.52473116e-01, 3.26445729e-01,
          3.66330564e-01, 3.66330564e-01, 3.66330564e-01, 3.66330564e-01,
          3.66330564e-01, 3.78178686e-01, 3.78178686e-01, 3.60894173e-01,
          3.78178686e-01, 3.78178686e-01, 3.78178686e-01, 2.27820992e-01,
          1.53654471e-01, 2.74534941e-01, 4.21165228e-01, 4.21165228e-01,
          2.23052099e-01, 3.54760617e-01, 4.21165228e-01, 4.21165228e-01,
          2.63126343e-01, 1.04721420e-01, 1.74536273e-01, 4.38665390e-01,
          2.96380192e-01, 1.15408383e-01, 4.26431626e-01, 4.38665390e-01,
          4.38665390e-01, 1.57306865e-01, 1.65928811e-01, 2.88191229e-01,
          3.61302137e-01, 9.84187797e-02, 1.92122832e-01, 3.69497865e-01,
          3.69497865e-01, 3.69497865e-01, 3.69497865e-01, 3.69497865e-01,
          3.69497865e-01, 0., 5.30686937e-02, 1.59206092e-01,
          1.68987617e-01, 8.72313440e-01, 4.16707784e-01, 0., 0., 0., 0.,
          0., 0., 2.37476248e-02, 9.83413517e-01, 1.50079906e-01, 0., 0.,
          0., 0., 0., 0., 0., 9.95024860e-01, 0., 0., 0., 0., 0., 0., 0.,
          0., 0., 0., 0., 0., 0. ]
      - [ 6.63389742e-01, 6.63389742e-01, 9.85676348e-02, 1.21024162e-01,
          2.14180034e-02, 0., 0., 0., 2.97294647e-01, 4.30450767e-01,
          4.30450767e-01, 3.11035484e-01, 1.86399147e-01, 2.66028196e-01,
          4.30450767e-01, 2.39052638e-01, 1.10762164e-01, 4.10077274e-01,
          3.60142708e-01, 3.60142708e-01, 3.60142708e-01, 3.52459490e-01,
          1.70982659e-01, 2.54405856e-01, 3.60142708e-01, 3.60142708e-01,
          3.60142708e-01, 4.76879358e-01, 2.91193992e-01, 0., 0., 0.,
          2.80573573e-02, 4.76879358e-01, 4.76879358e-01, 4.76879358e-01,
          4.18370724e-01, 4.18370724e-01, 3.60170662e-01, 2.03318626e-01,
          4.18370724e-01, 4.18370724e-01, 1.26600489e-01, 1.68562517e-01,
          2.83164114e-01, 3.83362353e-01, 3.83362353e-01, 3.08228493e-01,
          2.69397408e-01, 3.83362353e-01, 3.83362353e-01, 2.92460740e-01,
          2.11137176e-01, 3.32583129e-01, 3.32778692e-01, 3.32778692e-01,
          3.32778692e-01, 3.32778692e-01, 3.32778692e-01, 3.32778692e-01,
          3.32778692e-01, 3.32778692e-01, 3.32778692e-01, 3.41844589e-01,
          3.41844589e-01, 2.48440474e-01, 3.41844589e-01, 3.41844589e-01,
          3.41844589e-01, 3.41844589e-01, 3.41844589e-01, 3.41844589e-01,
          3.84382218e-01, 3.84382218e-01, 3.84382218e-01, 3.84382218e-01,
          3.84382218e-01, 3.84382218e-01, 1.96995452e-01, 2.31976315e-01,
          1.30542383e-01, 3.82931888e-01, 3.82931888e-01, 3.82931888e-01,
          3.82931888e-01, 3.82931888e-01, 3.82931888e-01, 2.49566287e-01,
          1.39668494e-01, 1.85910791e-01, 3.10344964e-01, 3.45259637e-01,
          3.45259637e-01, 3.45259637e-01, 3.45259637e-01, 3.45259637e-01,
          3.45259637e-01, 3.45259637e-01, 2.56528348e-01, 1.90375760e-01,
          2.07040831e-01, 1.96964011e-01, 4.19606060e-01, 4.19606060e-01,
          4.19606060e-01, 4.19606060e-01, 3.11264098e-01, 2.77024001e-01,
          4.46215838e-01, 0., 0., 0., 4.46215838e-01, 0., 4.46215838e-01,
          4.46215838e-01, 4.46215838e-01, 2.96534687e-01, 4.12301511e-01,
          4.12301511e-01, 4.12301511e-01, 4.12301511e-01, 4.05957371e-01,
          7.05398023e-02, 1.27576087e-02, 2.40911603e-01, 2.02475935e-01,
          1.70903370e-01, 3.96809101e-01, 3.96809101e-01, 3.96809101e-01,
          3.96809101e-01, 3.96809101e-01, 3.00282270e-01, 2.19942585e-01,
          3.41954708e-01, 3.66638988e-01, 3.66638988e-01, 2.53541768e-01,
          3.66638988e-01, 2.29472980e-01, 3.66638988e-01, 3.00569504e-01,
          3.66638988e-01 ]
      - [ 3.76701266e-01, 3.76701266e-01, 3.76701266e-01, 2.31422246e-01,
          1.48166820e-01, 3.76701266e-01, 3.72795999e-01, 2.68757761e-01,
          3.76701266e-01, 4.05400425e-01, 4.02445674e-01, 1.50115222e-01,
          2.97316015e-01, 9.33906510e-02, 2.38613576e-01, 4.05400425e-01,
          4.05400425e-01, 4.05400425e-01, 3.86047810e-01, 3.86047810e-01,
          3.86047810e-01, 1.82504401e-01, 1.72434881e-01, 3.86047810e-01,
          3.86047810e-01, 2.11198643e-01, 3.78592491e-01, 3.59980702e-01,
          3.35584730e-01, 3.59980702e-01, 3.59980702e-01, 2.02999189e-01,
          2.55070418e-01, 3.59980702e-01, 3.59980702e-01, 3.59980702e-01,
          3.32778692e-01, 3.32778692e-01, 3.32778692e-01, 3.32778692e-01,
          3.32778692e-01, 3.32778692e-01, 3.32778692e-01, 3.32778692e-01,
